716 100
직업 0.005050505 0.31188807 0.14718628 0.07291758 0.07888085 -0.6706042 0.3245867 0.93506986 -0.3741222 -0.19640703 -0.3403985 -0.66362554 -0.20639843 0.125958 0.07603205 -0.27969596 0.104147315 -0.2821676 -0.140045 -0.85724753 0.16675398 0.27934146 -0.07797253 -0.22113082 -0.045901444 0.019762503 -0.44974977 -0.6229337 -0.03945976 0.02884904 0.62831724 0.3495894 0.3183706 -0.2334695 -0.3969689 0.7051738 0.12077595 -0.49132138 -0.27266484 -0.87063515 0.119023845 -0.3848199 -0.18190494 -0.22520196 0.3294975 -0.13734685 -0.40921322 0.18580684 0.34983894 0.13963237 0.19901225 -0.49876377 0.103566915 0.13658442 -0.17628941 0.30816248 0.4222756 0.11813498 -0.43801147 0.311173 0.040076558 0.2057446 -0.29391074 -0.2863705 -0.5264411 0.2739035 0.25967672 0.34221715 -0.61520183 0.41399816 -0.29082996 0.2020014 0.3594451 -0.329835 0.4361066 0.1264088 0.083155066 -0.10310122 -0.44386923 0.12016108 -0.257286 0.04907625 -0.5893606 0.5460167 -0.1585538 0.083671026 0.1320874 0.6470559 0.72486115 -0.17057107 0.5427653 0.5807498 -0.06991918 0.37876043 0.8231395 0.42328483 0.070129454 -0.46968997 0.19416368 -0.13186859
생각 -0.0027298776 0.28778568 0.13714443 0.06120879 0.08979602 -0.61004716 0.2897831 0.84800506 -0.3404598 -0.18388288 -0.31704873 -0.6139914 -0.18753335 0.119777694 0.07697736 -0.24651034 0.098323025 -0.25279862 -0.12585872 -0.7753255 0.14565945 0.24410808 -0.07124999 -0.21425343 -0.042066343 0.025674002 -0.4139559 -0.57156277 -0.030126134 0.03753695 0.5931043 0.31714767 0.28038177 -0.21145657 -0.35780382 0.650843 0.11030622 -0.43816027 -0.24191964 -0.7816896 0.12598078 -0.36120144 -0.16377558 -0.20012482 0.2984655 -0.120385446 -0.35795274 0.15908137 0.31650174 0.120402366 0.19827895 -0.47194615 0.09996098 0.12626803 -0.17112482 0.29721266 0.388098 0.12264287 -0.39953592 0.2803339 0.027737116 0.19145021 -0.2698049 -0.25713176 -0.4750098 0.25405288 0.2467801 0.3016506 -0.54981095 0.38343984 -0.27504385 0.16602318 0.33396354 -0.28520015 0.39419276 0.109515786 0.06162216 -0.09822845 -0.3982423 0.11530237 -0.2424778 0.04258802 -0.54028994 0.48526123 -0.13791864 0.073330626 0.11563833 0.58489436 0.6695387 -0.16677314 0.4950026 0.529971 -0.06817978 0.3380415 0.74072194 0.38263148 0.08035397 -0.4252905 0.16787437 -0.12151635
과학 0.0059162313 0.25426137 0.108041525 0.04241814 0.08208052 -0.5287416 0.24527423 0.74731874 -0.30911073 -0.15331927 -0.28576577 -0.54187745 -0.15121467 0.10196563 0.07501221 -0.22844335 0.086036295 -0.21511099 -0.112866305 -0.6861003 0.114781626 0.21060455 -0.073887914 -0.19322051 -0.034992218 0.019178139 -0.34902626 -0.49971202 -0.032062322 0.02793196 0.5216515 0.27835527 0.2385824 -0.18127887 -0.32844946 0.56693965 0.092922844 -0.38548705 -0.22105373 -0.69637865 0.09766334 -0.30982307 -0.13573462 -0.1659744 0.26959074 -0.1129886 -0.32160938 0.1370865 0.2711444 0.099569686 0.17183909 -0.40719518 0.07805045 0.09727565 -0.15861425 0.24769697 0.33547127 0.09721958 -0.35965875 0.23308958 0.03768908 0.15979733 -0.22450267 -0.21744934 -0.4307193 0.23000368 0.21595694 0.27739277 -0.49556893 0.3419501 -0.23263405 0.16233395 0.2952712 -0.25376076 0.34669486 0.11826373 0.071518265 -0.08097762 -0.3593163 0.10697402 -0.20738235 0.025112782 -0.48948637 0.43750054 -0.121986076 0.060865708 0.09829653 0.52034074 0.60151994 -0.14208479 0.4336622 0.47412926 -0.048875827 0.3011133 0.6609945 0.34132043 0.07265884 -0.37494767 0.16770455 -0.11897075
진로 -0.0029171356 0.2607336 0.114856035 0.045257494 0.077603415 -0.5350282 0.257813 0.74739236 -0.29269454 -0.16405423 -0.27020824 -0.52744955 -0.15500346 0.090984255 0.07408713 -0.22731963 0.089776814 -0.23542728 -0.11592233 -0.67441976 0.12701139 0.21599776 -0.05992312 -0.16840352 -0.054562483 0.02099625 -0.35202053 -0.50113994 -0.022828536 0.027814442 0.51109785 0.278886 0.23886037 -0.18602115 -0.3143961 0.5787237 0.09993245 -0.39548972 -0.22969346 -0.6857928 0.10715207 -0.30827048 -0.12934662 -0.17666265 0.27242973 -0.111370794 -0.31655777 0.13707553 0.2714515 0.101587735 0.17125885 -0.40609604 0.076013714 0.098185435 -0.15562908 0.25136167 0.33740157 0.11253577 -0.3444481 0.23527518 0.03251342 0.16826543 -0.2239581 -0.22156039 -0.41387504 0.21184938 0.20843163 0.27791372 -0.49052578 0.3200547 -0.231965 0.14970237 0.28766778 -0.2443429 0.34389976 0.09697057 0.054790426 -0.07434515 -0.35834193 0.10494942 -0.2108868 0.040350314 -0.47301662 0.43265042 -0.12455683 0.061836332 0.11289122 0.52759457 0.58284014 -0.15271938 0.4262997 0.46596718 -0.06000574 0.29858997 0.66310495 0.33283216 0.07299015 -0.37948847 0.15376835 -0.117803276
학과 -0.0019790514 0.28387177 0.12006738 0.050669696 0.08296756 -0.5909108 0.2836818 0.8343204 -0.335816 -0.16684394 -0.3180771 -0.5905472 -0.18968028 0.11358957 0.06681944 -0.25279355 0.08587141 -0.25084466 -0.112145215 -0.76905674 0.13947584 0.23386127 -0.06932559 -0.19157751 -0.0524939 0.022633567 -0.4016857 -0.56075644 -0.033566225 0.029764984 0.5816769 0.3216569 0.27849194 -0.21354052 -0.3453088 0.6322284 0.095948346 -0.43355915 -0.24760118 -0.77860206 0.11874282 -0.35919476 -0.16324772 -0.18604647 0.30402535 -0.13665727 -0.3552753 0.15933464 0.31464964 0.10825014 0.19168387 -0.448312 0.10960283 0.11601045 -0.16565007 0.2770099 0.36270818 0.106078535 -0.3931936 0.26028827 0.042610012 0.17583099 -0.25784668 -0.24668436 -0.47475615 0.24237202 0.24556778 0.31482878 -0.5530515 0.38042134 -0.2714622 0.17502548 0.3198277 -0.28032893 0.3921067 0.12140595 0.06519637 -0.08510169 -0.3897768 0.11047482 -0.23945743 0.030981874 -0.53468287 0.48229676 -0.14306201 0.062781945 0.124463186 0.5891211 0.6477344 -0.16286743 0.48938206 0.5153639 -0.061578713 0.3339866 0.7340633 0.364961 0.07962204 -0.4133776 0.17419797 -0.11766028
시간 -0.004101349 0.2629903 0.11875744 0.039845567 0.06522062 -0.5519283 0.2694549 0.77339244 -0.31640765 -0.16922398 -0.29531896 -0.55390066 -0.17307913 0.08942273 0.06538046 -0.2416892 0.07654817 -0.24414836 -0.1130232 -0.70765877 0.12073296 0.22551602 -0.0633843 -0.17715506 -0.051720396 0.015554809 -0.36937815 -0.5342055 -0.024534417 0.034405347 0.5366566 0.28491044 0.25092372 -0.19714883 -0.3301659 0.60035795 0.0986074 -0.39828715 -0.22380276 -0.7255576 0.117950484 -0.33305985 -0.14960617 -0.18364371 0.27356204 -0.120031126 -0.33182192 0.15209676 0.284066 0.1053858 0.17585473 -0.42799655 0.09851861 0.12125358 -0.16482997 0.26359686 0.35702288 0.099170364 -0.3702931 0.24095456 0.0431968 0.16855983 -0.23147121 -0.23791896 -0.43049234 0.22964267 0.21865301 0.28102827 -0.51424885 0.33196464 -0.24378802 0.16606726 0.30824712 -0.25708786 0.35829127 0.11409081 0.052920107 -0.08298814 -0.365444 0.1112816 -0.20509535 0.02862622 -0.48919278 0.4358063 -0.12807426 0.058527503 0.10229587 0.5518357 0.60532814 -0.14490683 0.46069026 0.49303007 -0.07124417 0.31000853 0.68724394 0.35246998 0.066826925 -0.39461508 0.16398041 -0.12424524
관련 0.013648343 0.29532966 0.13597614 0.05850006 0.08469186 -0.6326425 0.30699906 0.8827729 -0.35713053 -0.18740706 -0.32504848 -0.63246554 -0.19288719 0.1267715 0.071285106 -0.2651286 0.10420483 -0.26530433 -0.12394756 -0.81749713 0.15014268 0.25535277 -0.072024204 -0.21170102 -0.05005127 0.025993617 -0.428676 -0.60717905 -0.027271971 0.029308083 0.61632645 0.3485565 0.29133794 -0.21165982 -0.38384888 0.678809 0.10017362 -0.4724987 -0.2691131 -0.83781767 0.13107562 -0.377614 -0.15326586 -0.2147142 0.31907043 -0.12515903 -0.3891689 0.15740827 0.32576364 0.1198834 0.19970965 -0.49060535 0.095517874 0.13066933 -0.18494046 0.29132 0.39467275 0.1115329 -0.42486575 0.27491876 0.039059512 0.19029662 -0.26935813 -0.26232657 -0.50444746 0.2645974 0.24192888 0.3182446 -0.5897415 0.39001748 -0.28418112 0.18796049 0.33952132 -0.29612115 0.41927928 0.115013994 0.07707075 -0.09255472 -0.42584527 0.13345566 -0.23908673 0.033832196 -0.57640284 0.5175149 -0.14606449 0.07150908 0.13081568 0.61708105 0.6904457 -0.16754277 0.51412547 0.5535275 -0.07527102 0.3603005 0.7757518 0.3985713 0.0858427 -0.44875896 0.18156838 -0.124707535
영상 0.016083386 0.28487715 0.14453734 0.067744724 0.07985852 -0.6135899 0.29859504 0.85103256 -0.34934205 -0.18573214 -0.32249573 -0.61525404 -0.18008077 0.11401032 0.07342721 -0.25675622 0.100948766 -0.26572278 -0.13046777 -0.79387903 0.14628716 0.26090708 -0.077610984 -0.21683726 -0.0592358 0.02990024 -0.4165025 -0.57613355 -0.037558477 0.041369133 0.58348197 0.3279228 0.28324047 -0.22025463 -0.3694207 0.65742 0.09729801 -0.4506588 -0.2617307 -0.80206573 0.12682173 -0.3628711 -0.1550881 -0.2006574 0.3152112 -0.1384902 -0.37957564 0.15640421 0.32980153 0.12347314 0.18268462 -0.4706413 0.11055491 0.11733888 -0.17747396 0.30233786 0.373221 0.118139684 -0.40397534 0.28028405 0.046077196 0.18764766 -0.2715249 -0.24559763 -0.481585 0.25924215 0.23207653 0.32238656 -0.5654197 0.373845 -0.26767555 0.17542101 0.33799765 -0.29703256 0.3956754 0.1183019 0.07768146 -0.1022691 -0.40562636 0.1109625 -0.23937385 0.037944235 -0.5646176 0.49912706 -0.13848639 0.07419164 0.12081012 0.61303306 0.6824112 -0.1650384 0.5009564 0.5325013 -0.0810638 0.35440984 0.75142604 0.38520467 0.07575543 -0.43263835 0.18507054 -0.13039616
일 -0.004265741 0.312889 0.14219654 0.068507925 0.09385317 -0.6416769 0.316545 0.8955369 -0.36675608 -0.18478434 -0.33373168 -0.65055853 -0.18656957 0.11500743 0.087681994 -0.27008504 0.092085786 -0.27925202 -0.13528168 -0.82737184 0.1536487 0.27397117 -0.07232939 -0.22425355 -0.048277296 0.025709515 -0.43663374 -0.62241864 -0.029500734 0.02375676 0.626776 0.33751643 0.30531242 -0.20975968 -0.38522172 0.6927522 0.10611962 -0.46490103 -0.263299 -0.85278386 0.123662814 -0.37580958 -0.16653647 -0.21396437 0.31905472 -0.1379566 -0.38812476 0.17445818 0.3302236 0.122848436 0.20296437 -0.4898001 0.105163194 0.12705626 -0.17559883 0.30364582 0.40548858 0.12263873 -0.41893768 0.28380218 0.033663217 0.19451903 -0.27233866 -0.2717739 -0.5214514 0.26390606 0.2483904 0.33271885 -0.60428953 0.4045163 -0.2968238 0.1867935 0.3560369 -0.3020431 0.4119961 0.11735989 0.06618699 -0.10895973 -0.43803212 0.12576543 -0.24897388 0.035883557 -0.57224244 0.5250142 -0.1408496 0.081154026 0.12293963 0.6280479 0.7088563 -0.16642678 0.5213188 0.56526613 -0.069653206 0.36572018 0.79998446 0.41548905 0.080781356 -0.44324493 0.19293988 -0.1392474
사람 0.000740779 0.3052875 0.13628262 0.070248544 0.087322384 -0.6705507 0.31453806 0.9321179 -0.37315235 -0.19681957 -0.34636012 -0.6678582 -0.20504412 0.122942604 0.07690079 -0.27045652 0.10497731 -0.29636982 -0.12608778 -0.8568635 0.16015175 0.27847868 -0.090509854 -0.22524545 -0.044209134 0.019407772 -0.45492944 -0.62063384 -0.03339483 0.029249659 0.648743 0.35671884 0.31333104 -0.21471384 -0.40753356 0.7148314 0.114424266 -0.48229828 -0.27404457 -0.86469144 0.13424821 -0.38170555 -0.17562458 -0.22543201 0.3285254 -0.13635792 -0.40275487 0.18284856 0.34892595 0.13850322 0.2112688 -0.4951612 0.107568555 0.14369324 -0.18204314 0.30615106 0.4092571 0.12197138 -0.43205756 0.29750377 0.037346918 0.21494116 -0.28107294 -0.28008324 -0.5315066 0.26797467 0.25723886 0.32583696 -0.61134964 0.407365 -0.29313383 0.19913632 0.35427582 -0.32947066 0.4332061 0.11932882 0.07621663 -0.108430505 -0.4331893 0.13314848 -0.25117087 0.03998962 -0.59706604 0.5472232 -0.14970797 0.0760117 0.11659337 0.65386677 0.7364182 -0.16938119 0.531055 0.5907248 -0.0708039 0.3845249 0.8232143 0.41221088 0.070340194 -0.45553282 0.201714 -0.13395461
생명 0.011448474 0.21531701 0.10694317 0.02487968 0.05281918 -0.47010577 0.20838112 0.64575034 -0.26340663 -0.14824548 -0.23288557 -0.46963954 -0.13039798 0.08359561 0.062031895 -0.18590179 0.07159921 -0.19668065 -0.08479766 -0.5944138 0.1012553 0.1816982 -0.050406944 -0.1622987 -0.04459423 0.025625773 -0.309991 -0.43912175 -0.013224463 0.023600707 0.44403747 0.25029334 0.22163314 -0.14257538 -0.26853493 0.49343508 0.08453335 -0.33694974 -0.19844326 -0.59962696 0.08702519 -0.2697364 -0.12015191 -0.14064117 0.22170295 -0.11236954 -0.2813683 0.12008125 0.23133832 0.086079694 0.14048241 -0.349952 0.0667996 0.09221356 -0.122626305 0.21998596 0.28696376 0.08454814 -0.29842618 0.20771214 0.020840643 0.13704225 -0.19755231 -0.1851667 -0.37588942 0.19485481 0.16809064 0.22679257 -0.41595727 0.2893669 -0.19928579 0.14598452 0.24593025 -0.20780888 0.3051326 0.10531006 0.05932464 -0.08428562 -0.3119266 0.09862354 -0.17560709 0.03877495 -0.40895373 0.38920352 -0.11452669 0.061722122 0.084776655 0.4590617 0.51990193 -0.115225814 0.38876992 0.4044537 -0.04945857 0.2726911 0.55864406 0.29115534 0.06717224 -0.33065316 0.13970764 -0.10730087
지능 0.014172231 0.2801849 0.12857641 0.054566983 0.0765232 -0.5695661 0.27221912 0.7866437 -0.3265465 -0.16996856 -0.29260126 -0.5589187 -0.16841461 0.092869215 0.078869015 -0.24695294 0.08080064 -0.2542475 -0.11839396 -0.72700083 0.1302679 0.22138934 -0.07763121 -0.2026101 -0.053124025 0.0014754107 -0.3894944 -0.5215244 -0.019238006 0.024397448 0.5369447 0.29044226 0.25596875 -0.1788435 -0.3428908 0.60466576 0.09841676 -0.41046393 -0.24452232 -0.74649423 0.10578465 -0.33117253 -0.1404278 -0.17647846 0.27330375 -0.12342867 -0.32188645 0.14147177 0.28194857 0.11876295 0.18635894 -0.42849734 0.10242572 0.11605764 -0.1727701 0.2569029 0.36010534 0.11464248 -0.37148446 0.24865691 0.040851146 0.18044592 -0.24479578 -0.24505693 -0.45053512 0.24499302 0.23848946 0.2935833 -0.5202648 0.34040403 -0.2570162 0.17946565 0.3036671 -0.25700724 0.3688431 0.1207345 0.053826373 -0.07907446 -0.37892476 0.10703193 -0.2149588 0.043302074 -0.51270396 0.45203978 -0.11813636 0.07530668 0.10940725 0.5385047 0.62572044 -0.14310868 0.46878737 0.49171534 -0.077204324 0.31939682 0.70234126 0.34395972 0.058177058 -0.39505878 0.15920663 -0.12645929
때 0.0044733156 0.3035398 0.15231209 0.050339397 0.09290621 -0.6472352 0.31016284 0.9212785 -0.356808 -0.19744763 -0.34950063 -0.66148835 -0.20616506 0.11870172 0.07328465 -0.28345907 0.098603524 -0.27872425 -0.12314691 -0.83997995 0.14979944 0.26976043 -0.085110255 -0.211271 -0.05365674 0.030315882 -0.45001996 -0.6131522 -0.0313549 0.04233907 0.62198746 0.34942493 0.30448243 -0.2234764 -0.39716384 0.6922124 0.103410475 -0.4889383 -0.27121553 -0.8548058 0.12547216 -0.37641644 -0.17101672 -0.21730687 0.31736255 -0.14924972 -0.3836808 0.16635917 0.33277187 0.13243417 0.21368948 -0.5062928 0.10870323 0.12766755 -0.18112001 0.3066001 0.4062014 0.12928519 -0.42261547 0.30005825 0.029819762 0.19655865 -0.2783642 -0.2707409 -0.52146155 0.26831183 0.26806995 0.33077005 -0.61070895 0.40980205 -0.2872107 0.19473524 0.35780194 -0.31997967 0.42533657 0.12686488 0.078489974 -0.10986789 -0.44302577 0.13043785 -0.26056802 0.04682989 -0.58887005 0.5415277 -0.15747358 0.079911046 0.13414258 0.6399003 0.71629137 -0.17284895 0.537347 0.5700833 -0.06783135 0.36442232 0.80578756 0.41229248 0.08992162 -0.4516519 0.1978073 -0.12762892
공학 -0.007996123 0.27858135 0.11403399 0.04382357 0.068354785 -0.5709764 0.25554225 0.77446234 -0.31804845 -0.16789523 -0.30135223 -0.5564615 -0.18051825 0.09799511 0.07816 -0.22564708 0.091993175 -0.23429537 -0.10936808 -0.7237757 0.1340261 0.22965126 -0.06534733 -0.18251967 -0.036097296 0.031526797 -0.39102587 -0.53938144 -0.02339602 0.032492016 0.5524357 0.3103351 0.2694861 -0.1936041 -0.32866466 0.59447074 0.08718581 -0.4024725 -0.22980082 -0.737191 0.10608486 -0.33460325 -0.13460758 -0.17808132 0.27833417 -0.13232599 -0.341822 0.15025084 0.30045646 0.10415653 0.17784445 -0.42598704 0.08328328 0.11521398 -0.1559078 0.27226198 0.36162683 0.107271224 -0.37395 0.26310477 0.0434367 0.17962772 -0.23886654 -0.22303763 -0.43740138 0.22748578 0.23019135 0.29216132 -0.50872123 0.3530265 -0.25179547 0.1579386 0.29423475 -0.2622339 0.37709996 0.11996456 0.061528023 -0.08374949 -0.37319866 0.105784915 -0.21655904 0.030697322 -0.4987365 0.46789622 -0.1243642 0.07293686 0.119205035 0.5634993 0.62263083 -0.15809098 0.47071466 0.49848408 -0.059423126 0.323751 0.6847524 0.34532833 0.07894933 -0.40157238 0.15623808 -0.1082582
활동 0.013613589 0.25437462 0.1140269 0.037400883 0.080045395 -0.52394825 0.2536399 0.73037267 -0.28233376 -0.16261993 -0.2630016 -0.53119236 -0.16524261 0.08650805 0.057445876 -0.2100112 0.08793763 -0.2270027 -0.099251136 -0.6687667 0.13025187 0.21821049 -0.06705228 -0.17844595 -0.049981683 0.023386296 -0.34837216 -0.4979138 -0.015743146 0.021303458 0.49158713 0.27509898 0.24150239 -0.18462402 -0.31643713 0.54760915 0.09798964 -0.37383103 -0.21636702 -0.673237 0.11060987 -0.30655527 -0.12654717 -0.16731198 0.26424876 -0.10359989 -0.31774968 0.13541889 0.27017435 0.1052498 0.16720298 -0.39138496 0.089535534 0.09608376 -0.14974579 0.23909852 0.33666965 0.104404524 -0.3428437 0.23793122 0.024114521 0.15349069 -0.22384724 -0.20992377 -0.40816748 0.2193887 0.20288582 0.26097277 -0.4784513 0.32109442 -0.23838218 0.1422976 0.28903836 -0.25079852 0.33676195 0.09321785 0.06851526 -0.0807227 -0.34501195 0.106426805 -0.20840114 0.034764156 -0.46497908 0.41249612 -0.11495487 0.06694153 0.10837991 0.5172258 0.5705638 -0.14506295 0.43281263 0.45743895 -0.05275543 0.30303225 0.63994664 0.32103977 0.06432481 -0.3557236 0.1450253 -0.09933034
선택 -0.0026623693 0.25034025 0.114289775 0.05554986 0.06413658 -0.52764165 0.24223569 0.73285705 -0.2978419 -0.14591345 -0.27998322 -0.5326294 -0.16367121 0.105341166 0.057857655 -0.22459103 0.07156665 -0.21762387 -0.10083327 -0.6674558 0.11932525 0.22098894 -0.076103345 -0.17722437 -0.05029614 0.018636018 -0.3560534 -0.48712763 -0.023308612 0.01667085 0.4983858 0.27265856 0.24532162 -0.16980654 -0.31813496 0.5700615 0.09838973 -0.39185917 -0.22628728 -0.6727412 0.111031376 -0.31327465 -0.14247891 -0.16368036 0.26546392 -0.10224179 -0.32221553 0.1279327 0.27355915 0.09084529 0.15982553 -0.4015824 0.09439137 0.11633331 -0.1487933 0.2564031 0.33591893 0.09789018 -0.33489177 0.24113446 0.034006838 0.15747051 -0.2337123 -0.21896039 -0.4044028 0.20682277 0.20223278 0.27457726 -0.47710603 0.33257666 -0.24314149 0.14977655 0.28754476 -0.25522324 0.34945947 0.11050161 0.059870783 -0.083131105 -0.34876618 0.098228216 -0.21101242 0.032382794 -0.4719895 0.43032023 -0.12945724 0.06828143 0.09368137 0.5058143 0.5848326 -0.12974332 0.42280304 0.46174425 -0.064234324 0.28904402 0.6367874 0.3358446 0.07190697 -0.3570338 0.15933895 -0.09963365
관심 0.005445124 0.19947025 0.09978808 0.04067529 0.06751448 -0.44434357 0.21138096 0.6295789 -0.24853018 -0.12981682 -0.23831107 -0.45506003 -0.14266771 0.091377884 0.045619186 -0.17746529 0.05848255 -0.19046636 -0.09134183 -0.5783978 0.11585571 0.18994896 -0.05481978 -0.14544965 -0.034762397 0.026265204 -0.2926972 -0.43373752 -0.025632093 0.01994292 0.43162978 0.23268548 0.20722608 -0.15988135 -0.26252136 0.48160562 0.0805474 -0.32877767 -0.19194813 -0.5918978 0.08659526 -0.2690084 -0.12133278 -0.13967232 0.2276247 -0.0921571 -0.278083 0.11128273 0.24013673 0.0900192 0.13501862 -0.34595504 0.07362219 0.092845716 -0.12262663 0.21360134 0.2743692 0.07368855 -0.30043066 0.20099704 0.032505844 0.1415828 -0.19174019 -0.18130481 -0.3530655 0.18758714 0.16427477 0.23536277 -0.40316385 0.28159446 -0.19132659 0.13821612 0.24282528 -0.2152984 0.2913053 0.076452345 0.05944292 -0.07515408 -0.28748846 0.08315601 -0.17162228 0.020464206 -0.41017342 0.3539831 -0.1097343 0.055246983 0.07679479 0.43142158 0.48434064 -0.12303829 0.37099427 0.39538476 -0.03976598 0.26023182 0.5403802 0.2890041 0.044229083 -0.31376153 0.12283379 -0.08790521
검사 0.007061388 0.25084594 0.11477838 0.035986636 0.075926945 -0.5127887 0.2541613 0.70887685 -0.29048604 -0.15484546 -0.2710638 -0.5137913 -0.1415764 0.0862407 0.07230932 -0.22604576 0.07941952 -0.22379126 -0.09376019 -0.65971607 0.12761578 0.20096791 -0.074837916 -0.1794174 -0.044836324 0.008683829 -0.34809902 -0.4879264 -0.02100023 0.022605056 0.4857317 0.27472264 0.22454669 -0.17151994 -0.30056018 0.5521161 0.07542788 -0.36295682 -0.20683654 -0.67135245 0.11071118 -0.30895177 -0.120899186 -0.15945357 0.2517241 -0.115055904 -0.30654585 0.12707068 0.26195538 0.101679966 0.16934103 -0.37288684 0.09453242 0.09895429 -0.13448495 0.23518588 0.32759613 0.10222258 -0.3367104 0.23174374 0.02665897 0.15202068 -0.22925766 -0.21183865 -0.3928216 0.21243122 0.20603415 0.26023614 -0.45639867 0.30243126 -0.22527286 0.14131841 0.27852568 -0.22796139 0.33883348 0.10549524 0.06488858 -0.071069986 -0.33035547 0.10892276 -0.19979975 0.04182478 -0.45062533 0.4080838 -0.10513887 0.0688888 0.11187032 0.4998592 0.56905407 -0.13365367 0.4264425 0.4497823 -0.053166863 0.28240395 0.6320594 0.3261624 0.05933429 -0.35728723 0.15157402 -0.11607533
분야 0.014062604 0.20645319 0.09226577 0.043304935 0.068674475 -0.4627605 0.21955061 0.6464036 -0.2627433 -0.13933724 -0.24526846 -0.46083027 -0.13640013 0.09436615 0.06281196 -0.19064099 0.071453765 -0.18723066 -0.08051843 -0.5780435 0.11307746 0.17803977 -0.06379105 -0.1600101 -0.030306455 0.014021979 -0.31738433 -0.42726302 -0.0121882055 0.018484045 0.449843 0.2437329 0.20721893 -0.15482658 -0.27226296 0.4852832 0.08126961 -0.32939142 -0.18169019 -0.6082153 0.086804226 -0.27360165 -0.10694617 -0.14224339 0.22123629 -0.095818825 -0.28289148 0.12088533 0.24740942 0.084473364 0.13919976 -0.35497013 0.07315719 0.090930566 -0.123146474 0.22576672 0.28592122 0.08874046 -0.29060724 0.20712377 0.029063221 0.15102784 -0.1909183 -0.18202698 -0.36864114 0.1979367 0.18598889 0.2421118 -0.42110878 0.2876126 -0.19698131 0.12767316 0.25422516 -0.21554734 0.30752152 0.085578814 0.04993708 -0.064622246 -0.31424785 0.08201136 -0.18410882 0.029679764 -0.41404864 0.37725025 -0.09413751 0.05639001 0.089848764 0.4531754 0.50265676 -0.13128209 0.3829455 0.3956699 -0.046807937 0.27061403 0.5650504 0.29054335 0.05919021 -0.32338944 0.13774139 -0.0947749
공부 0.009611561 0.23309788 0.10765238 0.052150607 0.05732028 -0.47558773 0.23939556 0.6667741 -0.2697943 -0.14735918 -0.2530609 -0.48035288 -0.1364529 0.09285353 0.06150699 -0.20186697 0.08348232 -0.21487588 -0.1037422 -0.62230426 0.11192899 0.20354874 -0.07146815 -0.16509584 -0.048547555 0.022323387 -0.32800052 -0.46618292 -0.01911047 0.03500744 0.4618067 0.2504417 0.22597243 -0.1665927 -0.29930243 0.52671546 0.073223785 -0.35926446 -0.20302492 -0.6379188 0.09627654 -0.27358124 -0.117654145 -0.15021428 0.24005604 -0.10409085 -0.2943116 0.116658926 0.25487074 0.09657473 0.14162743 -0.37390295 0.068810605 0.09190645 -0.13111012 0.23895769 0.30547783 0.09438205 -0.31029758 0.21409933 0.02751074 0.13962658 -0.21057364 -0.20181355 -0.3801596 0.20583777 0.18169115 0.24193458 -0.44948572 0.29577392 -0.21839212 0.14087147 0.26539415 -0.2354901 0.30917394 0.094256535 0.05977769 -0.069252826 -0.32485405 0.088911 -0.19085793 0.029599288 -0.4339362 0.39259887 -0.103525676 0.05691152 0.09366037 0.46816787 0.52946556 -0.13659286 0.39294088 0.4233565 -0.06532259 0.2832383 0.5830117 0.29266265 0.052014805 -0.32931945 0.14790343 -0.0892329
수학 0.0061825025 0.21754844 0.098741174 0.049593244 0.06472154 -0.45363998 0.21521685 0.63631487 -0.2517675 -0.13720934 -0.23607807 -0.46016285 -0.1318007 0.0886039 0.05953196 -0.19841683 0.06387244 -0.19093467 -0.097720355 -0.58429706 0.10621912 0.1888792 -0.07028338 -0.14564486 -0.039531417 0.009374177 -0.30428913 -0.43387124 -0.029633127 0.015326297 0.4419994 0.23513211 0.21076989 -0.15013026 -0.278495 0.49091265 0.08281611 -0.32263392 -0.18873425 -0.5960687 0.09297595 -0.2699858 -0.12462724 -0.14025778 0.22444949 -0.110294595 -0.2794578 0.11624061 0.24007061 0.093944445 0.15327924 -0.35497698 0.074790426 0.08638685 -0.13377051 0.2224126 0.29361567 0.084694825 -0.3116537 0.19729608 0.027774233 0.1508628 -0.19253027 -0.19744188 -0.37009382 0.19649842 0.17841451 0.22911423 -0.4111103 0.27940688 -0.20048715 0.13452296 0.23960355 -0.21700175 0.30641323 0.102705665 0.05278167 -0.067021325 -0.31047177 0.09120065 -0.18254094 0.029201461 -0.413196 0.36992002 -0.11298554 0.06604792 0.09261525 0.44448167 0.50043464 -0.11236916 0.36737353 0.40389723 -0.05041505 0.27060902 0.5680984 0.2832217 0.058894217 -0.32247666 0.123789586 -0.100154966
능력 0.007978898 0.29487193 0.14569028 0.06641429 0.073140554 -0.5995477 0.28464395 0.8438284 -0.34152275 -0.17095338 -0.31521884 -0.6015767 -0.17392668 0.11126602 0.06841468 -0.26281476 0.09885401 -0.2681722 -0.123969264 -0.7699063 0.140947 0.2426906 -0.08421164 -0.20332603 -0.04685197 0.023791002 -0.4144168 -0.5722384 -0.01876413 0.033088364 0.5892477 0.31626794 0.2844272 -0.21025723 -0.36102355 0.63840914 0.10173814 -0.4549898 -0.25335652 -0.8013149 0.11517814 -0.35322687 -0.15248066 -0.20192 0.29190633 -0.13491175 -0.3613505 0.15423006 0.30174124 0.11715655 0.20079543 -0.45326945 0.09135987 0.123119466 -0.17744075 0.27546918 0.38192818 0.11659246 -0.40440357 0.26382652 0.036039006 0.19725055 -0.2756944 -0.24853598 -0.48152527 0.25231454 0.25099084 0.31307992 -0.55872655 0.37671757 -0.26820898 0.18384467 0.32575557 -0.29386377 0.39517447 0.11380243 0.068172246 -0.08880972 -0.40023464 0.1313853 -0.24020721 0.031092815 -0.5383736 0.49466765 -0.14473811 0.078384146 0.122226305 0.5918804 0.6625098 -0.1552952 0.5052812 0.5227471 -0.07199859 0.34127092 0.738878 0.37920767 0.06735904 -0.41424617 0.17186236 -0.12336085
과목 0.0056338464 0.22853452 0.10338275 0.052908856 0.06445226 -0.4785285 0.22224519 0.6627365 -0.27090496 -0.14916034 -0.25737405 -0.48178124 -0.13685174 0.096280865 0.067211285 -0.19058637 0.06408892 -0.19912428 -0.084813856 -0.605126 0.11338532 0.19980833 -0.073354065 -0.14861165 -0.03608729 0.025385888 -0.3290031 -0.44321018 -0.013998346 0.021105437 0.45120022 0.25735667 0.21151134 -0.1676973 -0.27927688 0.5179724 0.09156559 -0.35301405 -0.20675285 -0.60818726 0.0996748 -0.28312927 -0.13046621 -0.1582705 0.23142973 -0.10306677 -0.2830354 0.12418393 0.24205525 0.08424184 0.16125278 -0.3667704 0.06846223 0.10442705 -0.12981826 0.237445 0.2932445 0.08504503 -0.3119608 0.20872976 0.017421648 0.14415084 -0.20481458 -0.18589462 -0.36369962 0.1966838 0.1819941 0.23877423 -0.438819 0.30258474 -0.22082636 0.13873546 0.2541023 -0.23396295 0.30428532 0.09859615 0.04530667 -0.0733181 -0.31255543 0.104067884 -0.19252008 0.032044806 -0.4139741 0.37882322 -0.11554935 0.06176182 0.09738154 0.46814588 0.5314817 -0.12474453 0.38806722 0.41401395 -0.060717307 0.27395698 0.58328396 0.2878158 0.05907248 -0.33210558 0.13728334 -0.08695562
시험 0.0036334575 0.27601758 0.13719928 0.045008626 0.071811795 -0.6012873 0.27314055 0.83403414 -0.33224672 -0.17867373 -0.3214466 -0.59894115 -0.1832315 0.11632864 0.08206197 -0.24437119 0.09885858 -0.26937294 -0.10705657 -0.769738 0.14950454 0.24711426 -0.07289634 -0.20928046 -0.05935313 0.029753476 -0.40596908 -0.56590146 -0.020188618 0.030841848 0.58515424 0.31726176 0.26738223 -0.21134701 -0.3593181 0.6318841 0.108384214 -0.43677115 -0.25863045 -0.77496326 0.12717666 -0.34786794 -0.14728789 -0.20540819 0.29743093 -0.13655049 -0.36434457 0.15875846 0.31001174 0.119482815 0.1928899 -0.45358503 0.10604384 0.12922546 -0.1724627 0.2937672 0.38213146 0.12674615 -0.3903818 0.26366207 0.031037979 0.183737 -0.26623058 -0.23693725 -0.47223762 0.2498482 0.24084556 0.29568216 -0.5442764 0.38257942 -0.26979643 0.17436673 0.3195032 -0.29374182 0.39802352 0.113913 0.074611746 -0.090254635 -0.40069035 0.122585274 -0.23502572 0.03503414 -0.53569674 0.49197555 -0.14017278 0.07460591 0.106956355 0.59916896 0.65081906 -0.15063174 0.49254644 0.51761883 -0.073774986 0.33287996 0.7279657 0.38450432 0.08401274 -0.4169957 0.17512566 -0.11387017
화학 -0.003320626 0.1984686 0.095222995 0.026540434 0.04439129 -0.43125218 0.20309608 0.5885497 -0.23953404 -0.13441184 -0.21924871 -0.4180925 -0.12782872 0.07969831 0.04735735 -0.1681755 0.0631661 -0.16727455 -0.09193647 -0.5385111 0.08517782 0.16677271 -0.06350548 -0.13592969 -0.040873125 0.012171055 -0.27754644 -0.40496427 -0.017075896 0.010600932 0.41796082 0.23702623 0.19600591 -0.13164069 -0.2451892 0.43819737 0.084425665 -0.31626055 -0.16514128 -0.54363155 0.07741431 -0.24889317 -0.09409968 -0.1417245 0.21747825 -0.10009284 -0.24218999 0.11129482 0.22734052 0.07578252 0.13947575 -0.30939147 0.0696278 0.083183266 -0.109560095 0.20919332 0.27578542 0.08843336 -0.2705225 0.19555312 0.037273817 0.12807332 -0.1819054 -0.16971578 -0.331929 0.17186941 0.15483491 0.20511307 -0.38412502 0.27497345 -0.19026996 0.11500217 0.23094343 -0.19641633 0.2773856 0.08953587 0.051484298 -0.061677504 -0.2808066 0.08471131 -0.15473868 0.028928362 -0.38223284 0.3529776 -0.089869 0.054426257 0.08024596 0.41828936 0.4734489 -0.103616886 0.34665456 0.35754755 -0.04502272 0.2439795 0.5180847 0.25230226 0.062296875 -0.30437076 0.12706321 -0.098249085
사회 0.016721753 0.27537867 0.121719636 0.047804512 0.07677892 -0.5620949 0.25873294 0.792739 -0.3142806 -0.16067815 -0.30358276 -0.5557776 -0.17037126 0.10815418 0.05959082 -0.23027769 0.09233959 -0.23350677 -0.117378905 -0.72821903 0.12788145 0.22868273 -0.081477135 -0.19847198 -0.04861572 0.02245388 -0.38928393 -0.5395095 -0.024736207 0.034148946 0.5447942 0.29678285 0.25009957 -0.19965865 -0.33609635 0.610578 0.10083127 -0.41206172 -0.23066981 -0.74736875 0.10818149 -0.33487955 -0.13953434 -0.18530984 0.27272397 -0.12850027 -0.34059024 0.14139256 0.29164857 0.10351488 0.1763413 -0.43079808 0.08442025 0.11246222 -0.15558292 0.2634366 0.34331667 0.102370664 -0.381068 0.24913442 0.04086463 0.17120647 -0.24353766 -0.22885275 -0.43494552 0.23961934 0.2310738 0.27572396 -0.52737814 0.34144554 -0.26182026 0.15407622 0.29537734 -0.27280784 0.36894262 0.10635306 0.05497501 -0.08238526 -0.3723155 0.11980039 -0.21025082 0.045425974 -0.5043743 0.46040118 -0.13466331 0.07054618 0.11168593 0.56392854 0.6177955 -0.1447739 0.45248476 0.49042556 -0.05282269 0.31686822 0.6879569 0.34299827 0.059187017 -0.38439047 0.15598339 -0.10915758
의사 -0.003425329 0.24178503 0.10297124 0.057110418 0.07669077 -0.510692 0.25633225 0.7221315 -0.30047557 -0.14052074 -0.27753082 -0.5106909 -0.1514076 0.09394248 0.05361347 -0.21968034 0.08647004 -0.23131979 -0.10073085 -0.67196065 0.1327426 0.20988008 -0.056158576 -0.17941216 -0.05092176 0.009270438 -0.35276994 -0.4869276 -0.024221689 0.035433844 0.5027107 0.27964714 0.24276114 -0.16768971 -0.31274092 0.5620431 0.078601345 -0.3764149 -0.21544358 -0.6776396 0.10906437 -0.30747044 -0.13831836 -0.16962294 0.2564623 -0.11397016 -0.3039626 0.12915899 0.27634275 0.101944335 0.1662611 -0.3907578 0.08493678 0.10733049 -0.14899881 0.2510999 0.32274234 0.09427199 -0.34977788 0.22331093 0.032479785 0.15388721 -0.22704233 -0.22122109 -0.4200602 0.21197805 0.20921844 0.25927976 -0.48639157 0.32677975 -0.23238221 0.14400195 0.27917472 -0.24915026 0.3326809 0.08942111 0.06713202 -0.07551174 -0.34635898 0.11053019 -0.19933304 0.041409153 -0.46740776 0.4282707 -0.12004664 0.056257356 0.09347682 0.52002156 0.5713939 -0.13560843 0.4307669 0.44544956 -0.06002742 0.28464282 0.6271757 0.3186544 0.06832832 -0.3575462 0.15727153 -0.104821555
필요 0.00784467 0.2564248 0.11299333 0.052205842 0.08002954 -0.52808595 0.2587693 0.7303677 -0.29130754 -0.15079562 -0.27239713 -0.54021037 -0.16190465 0.10123872 0.05795529 -0.2286498 0.086750194 -0.23433478 -0.110800534 -0.66637576 0.116396815 0.22483754 -0.06761128 -0.17364125 -0.045901548 0.014554685 -0.36535755 -0.5036259 -0.028507909 0.02341104 0.518406 0.27336204 0.23828149 -0.18422191 -0.32299387 0.55624807 0.0898814 -0.3778161 -0.21132916 -0.69712955 0.094034724 -0.3129357 -0.14481767 -0.17994109 0.25669613 -0.108767636 -0.3254284 0.14129959 0.2754945 0.10804789 0.1652704 -0.4120717 0.09252817 0.100488104 -0.14271218 0.25315696 0.34161246 0.102074526 -0.34968033 0.24313146 0.025838722 0.15530777 -0.2287283 -0.2236126 -0.42383137 0.21508388 0.19747035 0.26863632 -0.4867774 0.32610646 -0.23444065 0.15796085 0.29234347 -0.2620895 0.33908856 0.09227091 0.04958555 -0.08687633 -0.3537144 0.09838447 -0.20937115 0.030577928 -0.46948326 0.4315109 -0.11196093 0.05700313 0.09689909 0.5199378 0.5917647 -0.13850303 0.4332101 0.46377265 -0.05763609 0.29164368 0.6525875 0.3384367 0.06959184 -0.36505952 0.14461212 -0.11336987
내용 0.014637594 0.25756645 0.11037858 0.05346774 0.06849322 -0.542927 0.26728395 0.7619477 -0.30518505 -0.15658829 -0.29271033 -0.5519328 -0.15770678 0.111519106 0.057186548 -0.22313365 0.09355341 -0.2403812 -0.10623874 -0.7073454 0.13892548 0.22479679 -0.06471385 -0.17377438 -0.040951066 0.013121813 -0.37261006 -0.5217638 -0.02268482 0.031554803 0.5391372 0.29650354 0.26538438 -0.19632825 -0.33493707 0.5898158 0.09634773 -0.4055079 -0.2363892 -0.7217035 0.09877079 -0.31324038 -0.13721678 -0.18994352 0.27774584 -0.11127755 -0.33737037 0.13955104 0.2864152 0.11665888 0.16273215 -0.41773087 0.08367275 0.110410824 -0.15075892 0.2557021 0.3424988 0.107589625 -0.36930716 0.25477028 0.036374282 0.16061594 -0.243698 -0.22507477 -0.44367617 0.21871607 0.20786197 0.273383 -0.4966794 0.3503853 -0.24262062 0.14962573 0.30472314 -0.26014453 0.3578998 0.09649845 0.06043701 -0.08543289 -0.37374017 0.112043165 -0.2121309 0.02741037 -0.50256574 0.45304775 -0.13573009 0.062369462 0.1115624 0.54119706 0.6023043 -0.15155812 0.44750544 0.488018 -0.068459645 0.3080184 0.66850847 0.34229508 0.05968901 -0.39526865 0.16742189 -0.10610544
점 0.0010117713 0.26503485 0.12480802 0.048436612 0.088490024 -0.5763256 0.268831 0.8044635 -0.33470097 -0.16760504 -0.30829898 -0.58194 -0.17034763 0.115411505 0.07527307 -0.2501661 0.09421229 -0.2598295 -0.121402055 -0.7478387 0.13392197 0.23750241 -0.078723855 -0.19228633 -0.03696713 0.027598713 -0.39237407 -0.5419844 -0.024529358 0.027982283 0.5497545 0.3143348 0.2577354 -0.19931476 -0.33845422 0.6181711 0.09901525 -0.43232316 -0.23578809 -0.7505102 0.1023257 -0.34308 -0.13842647 -0.18705133 0.28720015 -0.123261146 -0.35951862 0.1620972 0.29792222 0.106674924 0.18567061 -0.44095114 0.08943989 0.12373407 -0.16503222 0.2696072 0.37239736 0.1176213 -0.372674 0.26120883 0.035537038 0.1710911 -0.24992794 -0.23161341 -0.45931008 0.23602943 0.22343774 0.2941491 -0.5397821 0.36622342 -0.2576377 0.17670177 0.3065632 -0.28329164 0.37087342 0.10490644 0.06922651 -0.08451758 -0.38578895 0.11801577 -0.234247 0.03498011 -0.5294653 0.47317216 -0.1352846 0.0811324 0.107457586 0.5783522 0.6421286 -0.15301116 0.47384644 0.5158388 -0.064331464 0.33975136 0.7141634 0.3697901 0.07677566 -0.41328618 0.163398 -0.11969086
수업 0.0052936645 0.2385918 0.11059051 0.05278053 0.06340995 -0.5050244 0.25162697 0.7096838 -0.28071967 -0.14481613 -0.26730847 -0.5161947 -0.14989555 0.08411482 0.059601948 -0.22601467 0.07574526 -0.22733988 -0.09631903 -0.65515846 0.13096938 0.20023249 -0.07000019 -0.1674446 -0.04530205 0.018098753 -0.34508345 -0.48431966 -0.028820954 0.015921542 0.49505496 0.2720473 0.24287693 -0.18323399 -0.29960033 0.5347199 0.0929581 -0.36570606 -0.21751115 -0.65473247 0.09364343 -0.3090308 -0.13021208 -0.16407524 0.24428803 -0.116604574 -0.29606846 0.13465402 0.26296526 0.101175986 0.15536259 -0.38430646 0.08425056 0.11363323 -0.14783457 0.24282733 0.32422623 0.0904071 -0.34476736 0.23772065 0.038427684 0.15165322 -0.21412711 -0.21097806 -0.40624824 0.20651829 0.19393444 0.2625293 -0.46415693 0.3064269 -0.22662862 0.14390661 0.28160396 -0.24399908 0.33847037 0.097992495 0.053597335 -0.07121252 -0.333121 0.09606079 -0.19996499 0.03044494 -0.46154112 0.41276157 -0.12834173 0.054758973 0.101186015 0.49899834 0.5647908 -0.13962997 0.41486153 0.44861114 -0.05029809 0.28983676 0.6323446 0.32459348 0.0552232 -0.3558935 0.13823019 -0.11312242
대학 0.0014574836 0.220208 0.11458744 0.04507806 0.06371597 -0.49644172 0.22312197 0.670125 -0.26293024 -0.14641565 -0.25045907 -0.49334925 -0.1383557 0.0951981 0.060333557 -0.20781492 0.0739255 -0.21436721 -0.089281 -0.62197787 0.114743285 0.20263283 -0.057700384 -0.17150846 -0.03021158 0.021283465 -0.33492678 -0.45445073 -0.023715442 0.034137517 0.46887428 0.26791036 0.23064639 -0.17225267 -0.29559377 0.5320729 0.08401852 -0.36577547 -0.20196024 -0.6411852 0.09666136 -0.29655156 -0.11823254 -0.15968505 0.25313962 -0.099372275 -0.2987493 0.13371933 0.25273806 0.08593696 0.16230902 -0.36188734 0.09102887 0.094479054 -0.14492144 0.2380337 0.29780692 0.103442684 -0.3198392 0.22515154 0.035786055 0.15010011 -0.21540487 -0.20145567 -0.3764005 0.19317105 0.19082257 0.24818812 -0.44431508 0.31205535 -0.22300978 0.14319211 0.26111594 -0.23051766 0.3268237 0.09891413 0.05115408 -0.07986639 -0.31734183 0.10706666 -0.18207635 0.02749559 -0.44226852 0.3924128 -0.11504578 0.0636016 0.08611138 0.47417572 0.5457643 -0.11944735 0.40637773 0.4288198 -0.06468993 0.26997703 0.60075724 0.29863423 0.05320759 -0.34043667 0.14051905 -0.110111505
경찰 0.0120330285 0.1826661 0.07974401 0.032923374 0.05760205 -0.41549006 0.18965542 0.58021396 -0.21799381 -0.1292569 -0.2046451 -0.40314633 -0.13331465 0.076113015 0.0547835 -0.16292723 0.057530098 -0.18749717 -0.07569111 -0.5410224 0.089821525 0.16871864 -0.04363395 -0.14337711 -0.028996421 0.015975015 -0.27455917 -0.38435227 -0.017954407 0.0320691 0.3950861 0.21093355 0.20313689 -0.14965682 -0.2403443 0.43786758 0.058622077 -0.31216383 -0.1668773 -0.539215 0.082589604 -0.2562134 -0.11296759 -0.14105839 0.2161534 -0.09582808 -0.24523872 0.10801677 0.21412265 0.09241591 0.12565088 -0.32165894 0.071643256 0.091569066 -0.10633078 0.193397 0.26007813 0.08636237 -0.27723178 0.19398656 0.016461803 0.12706888 -0.17795965 -0.1651338 -0.33026218 0.17214954 0.17146699 0.22116074 -0.39014962 0.26475906 -0.1791716 0.11420807 0.23568054 -0.20387529 0.265846 0.07325409 0.044277735 -0.06293464 -0.2777496 0.0753387 -0.1506316 0.020119885 -0.37886822 0.34297338 -0.084434204 0.05468595 0.078228116 0.40702954 0.45262426 -0.10254196 0.32794276 0.3614781 -0.04321474 0.22997731 0.50527227 0.26579052 0.062583804 -0.28564495 0.1323634 -0.09128953
말 0.010817098 0.25907117 0.11765803 0.051860273 0.07181025 -0.5621794 0.26987857 0.7874954 -0.32081625 -0.17273128 -0.29524308 -0.55130684 -0.17911436 0.11232754 0.067457214 -0.23213355 0.082867496 -0.24655989 -0.10845128 -0.7067226 0.124912396 0.22828771 -0.07099752 -0.18314947 -0.037969537 0.01659412 -0.36854422 -0.5370423 -0.027075054 0.03792785 0.54115695 0.28753024 0.25642237 -0.19962059 -0.3354399 0.6041752 0.08695021 -0.40309548 -0.22639792 -0.7348112 0.098772705 -0.3293339 -0.14572556 -0.18016297 0.28534472 -0.11512942 -0.3367194 0.14907677 0.28205022 0.107186034 0.17404231 -0.41482973 0.08613634 0.10623347 -0.1537102 0.26590607 0.3423279 0.102155 -0.368396 0.24679188 0.02485297 0.16890305 -0.24753577 -0.22655821 -0.44046026 0.23068747 0.22156909 0.2785978 -0.50995743 0.34729642 -0.24354553 0.15960005 0.29411834 -0.26820007 0.37355572 0.10191463 0.05735753 -0.09013893 -0.3628835 0.11011333 -0.20474778 0.027798586 -0.4930033 0.44116372 -0.119734935 0.07076616 0.10976622 0.54299915 0.62270755 -0.14200127 0.45047998 0.47974113 -0.057103314 0.31214857 0.6749928 0.35382745 0.063142955 -0.39693135 0.17238085 -0.11813116
자신 0.0036321962 0.23973268 0.10701276 0.04488865 0.06432258 -0.5206332 0.23952253 0.7307852 -0.28290483 -0.15469207 -0.2693664 -0.52525556 -0.14976229 0.10347779 0.06334607 -0.2251226 0.07642274 -0.21831675 -0.10580327 -0.6568348 0.1327461 0.21758811 -0.07194196 -0.16807874 -0.044264127 0.010774867 -0.34187344 -0.50050247 -0.02413899 0.024121266 0.488487 0.2741928 0.2451673 -0.17954537 -0.31668293 0.5589906 0.08368507 -0.38710448 -0.21498191 -0.67669404 0.10757688 -0.30309662 -0.12561472 -0.1810219 0.26052934 -0.10321142 -0.30904794 0.1321936 0.26760817 0.10044989 0.15532407 -0.3994714 0.08712735 0.10353156 -0.13470428 0.24333715 0.329385 0.09912919 -0.33236378 0.22104864 0.034767166 0.15882875 -0.22489004 -0.21775097 -0.41677594 0.22188519 0.19904923 0.26382375 -0.48188835 0.32279333 -0.21987598 0.14921874 0.28583744 -0.24785638 0.34396347 0.10946284 0.057443086 -0.08111086 -0.353698 0.11252649 -0.2012956 0.034898322 -0.4664961 0.42692563 -0.10937888 0.065644324 0.10165326 0.51425683 0.5711243 -0.1302929 0.4220427 0.4493649 -0.05330271 0.2897328 0.6306242 0.33528662 0.05262621 -0.36289808 0.14761683 -0.10126239
학교 0.012200615 0.24342108 0.12021254 0.046130475 0.06171628 -0.53360003 0.25308123 0.7387794 -0.2983362 -0.16122134 -0.27256608 -0.52295506 -0.16333416 0.101011604 0.064463414 -0.2253404 0.072438285 -0.22893292 -0.10397375 -0.67611504 0.13314107 0.22210358 -0.06550982 -0.18602034 -0.045599736 0.0118669 -0.35172263 -0.49998873 -0.028325677 0.029643109 0.51723945 0.28563565 0.2478455 -0.18940224 -0.3069973 0.56242377 0.08100433 -0.39722463 -0.22773735 -0.7002746 0.09432621 -0.31284717 -0.14332654 -0.17789324 0.27104992 -0.108350255 -0.31684625 0.138861 0.28515986 0.10514437 0.17302534 -0.39521414 0.07786332 0.098933354 -0.13840862 0.25561655 0.329548 0.10884331 -0.35792786 0.23403174 0.024707122 0.17133404 -0.23517546 -0.23015556 -0.42801455 0.2247545 0.20739213 0.2657557 -0.4915758 0.32927608 -0.24182436 0.15078945 0.29465607 -0.25322798 0.3420855 0.103939354 0.06490381 -0.09276415 -0.36168605 0.11515431 -0.21423098 0.035124943 -0.48810467 0.44108933 -0.12775828 0.05843325 0.102466315 0.5213605 0.5951603 -0.1314191 0.43569842 0.46848577 -0.052885834 0.30384284 0.6476162 0.33563024 0.06782037 -0.36441824 0.14896083 -0.12203606
과 0.0093697 0.2193931 0.08795273 0.03857013 0.05378109 -0.43438596 0.21760288 0.61243707 -0.24087448 -0.12375431 -0.22617172 -0.44912314 -0.12990142 0.08143253 0.052133508 -0.17712215 0.06480124 -0.17814691 -0.088154666 -0.5627623 0.09930285 0.17045307 -0.06710246 -0.14244321 -0.043433197 0.020478798 -0.29373518 -0.42408055 -0.02331034 0.016294051 0.41593707 0.23560356 0.21414968 -0.15712051 -0.26762065 0.4804344 0.08522895 -0.31227684 -0.19279058 -0.5692497 0.07972185 -0.25099802 -0.10597456 -0.1471022 0.2270231 -0.10359999 -0.26000938 0.12105823 0.23541546 0.09046346 0.13702254 -0.33125696 0.06539272 0.0823963 -0.120521374 0.20041338 0.27555263 0.086409554 -0.28253308 0.18907951 0.02475618 0.13120691 -0.19739744 -0.1815999 -0.34250793 0.1744706 0.17055993 0.23371728 -0.4046879 0.27114627 -0.18983799 0.12710115 0.23744953 -0.20069596 0.29592744 0.09058807 0.05296419 -0.07176459 -0.28524944 0.09269414 -0.1764952 0.021203676 -0.39637613 0.35099146 -0.09840748 0.04364722 0.08297452 0.43651566 0.48811597 -0.113262884 0.3506763 0.38802472 -0.043934338 0.25500998 0.5480035 0.27688265 0.061238382 -0.29966557 0.12702869 -0.0908822
선생 0.0070077158 0.20438406 0.10238221 0.034262136 0.056995593 -0.4494835 0.22386949 0.62872344 -0.25252497 -0.13424796 -0.23706016 -0.4501295 -0.14107458 0.07753582 0.055534195 -0.18520887 0.06960724 -0.18710056 -0.0901803 -0.5778461 0.098836854 0.19022116 -0.051489513 -0.15662153 -0.03239926 0.025842508 -0.30952182 -0.42993778 -0.028753908 0.027211709 0.42720914 0.23998708 0.21795583 -0.16270967 -0.2780363 0.48282677 0.06703098 -0.3375271 -0.19590573 -0.58773667 0.0857043 -0.26348034 -0.11700951 -0.13840237 0.23236257 -0.10105772 -0.26004586 0.108514056 0.23053758 0.09009315 0.1408083 -0.34571567 0.07340796 0.09183758 -0.13545194 0.2065016 0.27256218 0.0910467 -0.29849356 0.19490814 0.034039468 0.13944243 -0.19303982 -0.18235023 -0.35786256 0.19190484 0.1694745 0.22470194 -0.41969946 0.27909702 -0.20852791 0.13834722 0.24848017 -0.22243597 0.29850873 0.09347516 0.042728018 -0.066195086 -0.3057293 0.098780856 -0.16765523 0.027855232 -0.4125551 0.36214513 -0.10421641 0.05560951 0.09503424 0.4362838 0.484252 -0.12774007 0.36562312 0.39395103 -0.049233425 0.25233933 0.55867505 0.28194964 0.06182445 -0.308532 0.12193603 -0.09672367
연구 -0.0034608536 0.27263075 0.12592295 0.060796257 0.08008224 -0.57953864 0.27807415 0.8190761 -0.3276878 -0.17021503 -0.31141996 -0.59293836 -0.18749991 0.11088525 0.063162476 -0.25810525 0.07780666 -0.24448375 -0.11256217 -0.74248034 0.14716092 0.23221622 -0.07046606 -0.19790941 -0.03687949 0.017708797 -0.38777515 -0.5690824 -0.019042633 0.03612367 0.5687412 0.32202518 0.27833483 -0.19625947 -0.34422216 0.63397235 0.09627686 -0.42590192 -0.24291556 -0.776009 0.1179061 -0.3446322 -0.14550398 -0.19948757 0.2857633 -0.12636033 -0.3496817 0.14785185 0.3121171 0.109411806 0.19434686 -0.44795686 0.105779275 0.11385914 -0.17096989 0.28244513 0.3669903 0.11789812 -0.39367646 0.267074 0.037530925 0.18226744 -0.25643307 -0.2501236 -0.47597814 0.23215234 0.23626333 0.3059944 -0.5517973 0.37990478 -0.26028597 0.1638507 0.31762627 -0.27891535 0.37397784 0.1178627 0.07362012 -0.08653881 -0.38848844 0.12405814 -0.23067148 0.031927783 -0.5225519 0.47226885 -0.13558729 0.07122022 0.12082114 0.57635105 0.65659773 -0.15381652 0.48013145 0.5069957 -0.07914366 0.34230852 0.7141513 0.37898633 0.067043185 -0.42480114 0.16607317 -0.11675701
수사 0.004654099 0.19652538 0.07693841 0.025538703 0.04969056 -0.4052013 0.18339573 0.55737054 -0.23873286 -0.120965086 -0.20454945 -0.41898292 -0.12767301 0.07834667 0.05377534 -0.17926706 0.07048907 -0.1834958 -0.07352976 -0.50652754 0.101658285 0.17113176 -0.041628774 -0.13526528 -0.04080479 0.02467164 -0.28070506 -0.39154902 -0.011809794 0.011907568 0.38515946 0.21085982 0.19180185 -0.13286604 -0.24107967 0.4391894 0.066059716 -0.29398173 -0.17794323 -0.5327366 0.069662064 -0.2380676 -0.097627684 -0.12795897 0.19404414 -0.08515366 -0.23800927 0.10024543 0.20611216 0.07928959 0.122935094 -0.29747692 0.075450666 0.09002818 -0.102581985 0.18413426 0.25383034 0.06877853 -0.2732225 0.17087708 0.026371863 0.124306135 -0.18789637 -0.1599246 -0.32267305 0.16881645 0.156887 0.20176725 -0.37471175 0.26028103 -0.1772281 0.11244859 0.22537707 -0.19389522 0.26043493 0.09006271 0.041820914 -0.056478668 -0.27510682 0.07354058 -0.16102429 0.023265377 -0.3671006 0.32699004 -0.087136246 0.056769095 0.074985124 0.4058636 0.4477018 -0.10710481 0.33010584 0.35430056 -0.053712215 0.2253602 0.49671277 0.2584458 0.03801066 -0.27777743 0.12116627 -0.08802023
연구원 -0.0030621313 0.14646874 0.0650894 0.015026813 0.04177276 -0.3305565 0.14436847 0.43917271 -0.17106928 -0.09786328 -0.1777691 -0.31830707 -0.105858654 0.057224378 0.042796448 -0.1411601 0.038868293 -0.1421598 -0.053507593 -0.39835653 0.07659008 0.13094032 -0.035512775 -0.11418134 -0.014205903 0.022050107 -0.2109684 -0.29369062 -0.023965131 0.01472734 0.32037473 0.17207667 0.14142823 -0.10759624 -0.19465809 0.33783937 0.055314343 -0.22580245 -0.13376993 -0.41307575 0.057994764 -0.17825112 -0.08742184 -0.11323033 0.15446018 -0.079505146 -0.19911972 0.0838461 0.16832569 0.062004153 0.10791393 -0.24425113 0.05399229 0.06306196 -0.08126748 0.16086219 0.20205735 0.062349364 -0.21745864 0.13859382 0.013964038 0.09816141 -0.14506945 -0.13616018 -0.25451142 0.13468716 0.11430379 0.16511033 -0.28796864 0.20746674 -0.14514008 0.10601441 0.1841681 -0.15222913 0.21111944 0.056520514 0.03274297 -0.05235175 -0.21015468 0.0646754 -0.13454925 0.027245225 -0.29664776 0.27399895 -0.06762393 0.032648813 0.06466841 0.32529545 0.35103658 -0.09103316 0.27406535 0.28255224 -0.024938598 0.17437212 0.39122048 0.21031095 0.03766968 -0.2285416 0.088038705 -0.07476574
체험 -0.0036738378 0.1832953 0.077225305 0.025543531 0.058898766 -0.37156186 0.17533743 0.51393723 -0.20229737 -0.11233024 -0.19370288 -0.3706878 -0.10280821 0.07338318 0.046815347 -0.16182919 0.059886206 -0.15741383 -0.08007146 -0.47710785 0.08422729 0.15438697 -0.055424727 -0.12759562 -0.020428894 0.010192126 -0.24109158 -0.3503885 -0.023360705 0.013799206 0.35300434 0.19994105 0.16440846 -0.13263917 -0.22706969 0.40027633 0.060524024 -0.26486275 -0.15308283 -0.48987028 0.06950589 -0.21703297 -0.09147046 -0.13182001 0.17619826 -0.08434925 -0.21991248 0.093701795 0.19268604 0.07645016 0.11951601 -0.2770212 0.057224154 0.075813666 -0.10798338 0.16731116 0.24236365 0.06495629 -0.2501806 0.17155889 0.032945547 0.11363148 -0.15840355 -0.15776955 -0.29677498 0.14233556 0.13732485 0.17682742 -0.34524155 0.23666821 -0.1536659 0.1055086 0.1994605 -0.16972083 0.23956135 0.06456588 0.04466154 -0.054461487 -0.24803136 0.06456157 -0.13176757 0.03245528 -0.33997178 0.29168603 -0.081892096 0.04589977 0.061523438 0.37182826 0.39931783 -0.09568989 0.30974883 0.32401127 -0.03690874 0.20628008 0.44164622 0.23255579 0.043720912 -0.26760367 0.11534214 -0.08546315
과정 0.009842007 0.24657552 0.10454953 0.03915641 0.07808113 -0.5365688 0.25838837 0.738342 -0.28667012 -0.1467316 -0.26743817 -0.5210143 -0.16962525 0.08705375 0.0586059 -0.22384728 0.08580062 -0.2252408 -0.1070795 -0.6738087 0.12099932 0.20990099 -0.06293781 -0.18892731 -0.04169761 0.013445086 -0.34985435 -0.50792307 -0.02131989 0.020739237 0.5205397 0.27607346 0.24964204 -0.1776118 -0.30784205 0.5606538 0.08440887 -0.3946847 -0.21284175 -0.6989432 0.10879755 -0.3120909 -0.12965555 -0.18140776 0.26296756 -0.11271725 -0.32816458 0.14980848 0.271409 0.11012628 0.16743213 -0.39625147 0.08943409 0.11601385 -0.15712363 0.26033545 0.34077224 0.102267765 -0.34473476 0.2423646 0.036623653 0.16065924 -0.22934763 -0.2209611 -0.41612896 0.22561468 0.20052764 0.27069145 -0.4968301 0.32730734 -0.24643998 0.1562243 0.28590026 -0.2550783 0.35158965 0.09329952 0.060690776 -0.084568754 -0.35636932 0.09840634 -0.21283416 0.04334134 -0.48473662 0.4368792 -0.12452817 0.06426812 0.10430637 0.5138176 0.5778419 -0.14767002 0.4239871 0.45913088 -0.06382015 0.30224487 0.649731 0.32712135 0.060486365 -0.37406394 0.14858602 -0.11601625
대학교 -0.00018835525 0.22736458 0.0993178 0.036399107 0.068860464 -0.5124464 0.23472726 0.7078908 -0.2715068 -0.15351135 -0.25443918 -0.50971 -0.15174435 0.10102827 0.057394877 -0.20084915 0.07494279 -0.21204914 -0.09393847 -0.6540591 0.11058463 0.19667564 -0.06652692 -0.17721225 -0.03954595 0.011111071 -0.33855495 -0.47726145 -0.015021334 0.016743682 0.48044485 0.27660102 0.24363668 -0.17445995 -0.2989015 0.53163254 0.08342955 -0.3786174 -0.21589658 -0.6573184 0.09813062 -0.29110524 -0.14019923 -0.16367827 0.2557248 -0.11232795 -0.30120742 0.13877836 0.25385186 0.097528785 0.1616807 -0.37831816 0.08661602 0.10959131 -0.132257 0.24245557 0.32045677 0.089846976 -0.32361156 0.23074512 0.026503889 0.14808463 -0.21242398 -0.20268868 -0.40871352 0.20661418 0.19737226 0.25815073 -0.45388284 0.3053885 -0.21569596 0.13142371 0.27919367 -0.22899649 0.3235086 0.08744214 0.06403716 -0.08964886 -0.3422111 0.100266255 -0.19958612 0.042341243 -0.44515792 0.4095524 -0.106266685 0.07102237 0.103147104 0.4988096 0.55924743 -0.12639366 0.41559082 0.44395852 -0.06383934 0.29373583 0.6244198 0.3258508 0.05277664 -0.35642633 0.14623371 -0.09814392
공간 -0.00596006 0.24268536 0.121370845 0.05654602 0.06427213 -0.5108719 0.2544776 0.7091555 -0.29072762 -0.15955761 -0.2693274 -0.507691 -0.14950413 0.08002529 0.05821231 -0.2154045 0.078388065 -0.22881512 -0.095776655 -0.6502815 0.11549466 0.22234008 -0.078817494 -0.17675237 -0.028201684 0.012632291 -0.35215577 -0.48159435 -0.02543356 0.016181089 0.48554006 0.27754438 0.22460648 -0.16067913 -0.31793404 0.554546 0.08460343 -0.38001636 -0.20753695 -0.68257964 0.10453874 -0.3030589 -0.13762839 -0.17750645 0.25993466 -0.11432901 -0.2998646 0.12030959 0.26268175 0.096171185 0.15783425 -0.38867787 0.07848957 0.09595017 -0.14939772 0.23401517 0.31874344 0.08739568 -0.3309651 0.22744775 0.041732237 0.16571061 -0.2153228 -0.22511394 -0.41765365 0.21547946 0.19782631 0.2657765 -0.45822296 0.31274402 -0.22181971 0.16160358 0.27962726 -0.23457871 0.34233406 0.1049653 0.0467269 -0.089852504 -0.34583324 0.10192405 -0.18415667 0.019972157 -0.46490315 0.42441928 -0.11701444 0.057568837 0.10403703 0.49087405 0.55573225 -0.141395 0.42129263 0.45618415 -0.05436751 0.2983456 0.639924 0.32609433 0.054767173 -0.3490407 0.14039484 -0.11634991
정보 0.012542699 0.2404679 0.10019747 0.03384553 0.07399123 -0.4929648 0.22779049 0.69027793 -0.26794308 -0.1399073 -0.25724703 -0.48154184 -0.14022243 0.0970327 0.06836514 -0.21122386 0.07492162 -0.21235578 -0.08944078 -0.6135709 0.118626505 0.20367321 -0.05513199 -0.15768607 -0.039477993 0.010228373 -0.3331071 -0.4561957 -0.027211782 0.024795435 0.4759437 0.25425476 0.23525967 -0.16412707 -0.29066885 0.53194547 0.0834815 -0.35751554 -0.21402927 -0.6298323 0.08405165 -0.2795154 -0.11915146 -0.16061234 0.23504534 -0.095996514 -0.29455137 0.1334067 0.250259 0.08932923 0.15551443 -0.3820611 0.073498696 0.089479595 -0.13018939 0.23257616 0.30671972 0.09925948 -0.3250192 0.21226957 0.033661623 0.14465259 -0.21322505 -0.19412589 -0.3896662 0.20709145 0.19739546 0.24595034 -0.45376375 0.31497648 -0.21484064 0.14092597 0.26584744 -0.23884758 0.32130638 0.09293868 0.059000246 -0.08309514 -0.32782516 0.100691736 -0.1963942 0.027415967 -0.4507788 0.3988423 -0.11002265 0.06189387 0.094779864 0.48342997 0.54244405 -0.13049793 0.40794846 0.42435005 -0.060369767 0.27411774 0.59070134 0.29951832 0.06230561 -0.33853364 0.13544701 -0.11336717
가능 -9.9890334e-05 0.29339284 0.122700326 0.06027871 0.08989104 -0.6007096 0.28131536 0.85202026 -0.34759778 -0.1682528 -0.3262927 -0.6124106 -0.18154578 0.110344276 0.07836073 -0.25979325 0.094971895 -0.27129623 -0.11365744 -0.7776327 0.13674746 0.24807876 -0.07823148 -0.20350322 -0.050217703 0.0116399275 -0.41705352 -0.5861096 -0.036893018 0.024532475 0.59680754 0.3214874 0.2736666 -0.21078898 -0.35941103 0.64802516 0.10221827 -0.45133466 -0.2470858 -0.8042263 0.11045353 -0.34651724 -0.16426694 -0.19719996 0.30291906 -0.120733835 -0.359183 0.16534553 0.319459 0.12093232 0.19562632 -0.46775153 0.107380144 0.13049404 -0.16021906 0.28857204 0.37932667 0.12422967 -0.4094203 0.2708599 0.030075675 0.19449401 -0.27952993 -0.25139204 -0.47430724 0.24774717 0.22970648 0.29961875 -0.55835843 0.3746436 -0.2660914 0.17282721 0.33854613 -0.2924361 0.38547724 0.114387326 0.07029005 -0.09711685 -0.39821538 0.11768191 -0.2409721 0.039953753 -0.5511987 0.48497334 -0.14635225 0.074780256 0.11789122 0.60605824 0.67944807 -0.15329689 0.5035142 0.5320122 -0.07542562 0.35830864 0.7475723 0.38765994 0.07154196 -0.42101133 0.18350102 -0.13438357
다중 -0.0010237448 0.15209807 0.072194405 0.016650835 0.048539106 -0.30995178 0.15355287 0.43204737 -0.18734783 -0.08537839 -0.1758963 -0.32125798 -0.08764123 0.04381142 0.037365597 -0.13703044 0.045830313 -0.14497223 -0.059664227 -0.4015287 0.07798499 0.12702231 -0.036890443 -0.11983248 -0.017363207 0.00022918495 -0.21229406 -0.3030077 -0.016531486 0.0072712074 0.29780868 0.17761034 0.14519647 -0.100667864 -0.19728202 0.3422002 0.04447823 -0.23136088 -0.13794231 -0.42193443 0.06761706 -0.19018352 -0.07636088 -0.097641885 0.14793392 -0.07064857 -0.18931556 0.06827383 0.14785828 0.061338585 0.105123274 -0.23557663 0.048131805 0.06754005 -0.08956123 0.13261849 0.20855173 0.069585636 -0.2154718 0.140969 0.027602881 0.09589118 -0.13702944 -0.13780321 -0.23949887 0.13963999 0.13135235 0.15382215 -0.2881964 0.18429588 -0.150623 0.1031647 0.16997766 -0.14475827 0.2124785 0.05131698 0.041169062 -0.05510642 -0.21515504 0.06586111 -0.12375067 0.015024154 -0.28863382 0.24845344 -0.07213864 0.036264755 0.07707362 0.31612 0.3442076 -0.085457824 0.25369242 0.28603092 -0.04295889 0.18266085 0.3994793 0.20218484 0.037592262 -0.21444854 0.100219585 -0.07438257
영어 0.005807552 0.23485999 0.111815296 0.04339298 0.06785522 -0.48963866 0.21896243 0.6671266 -0.27794293 -0.14381489 -0.25808275 -0.48668557 -0.13708301 0.10391796 0.0685639 -0.20040274 0.0704194 -0.20465705 -0.099517405 -0.62824667 0.12052448 0.18829584 -0.060425684 -0.16573744 -0.047641125 0.017322771 -0.332515 -0.44934902 -0.029218923 0.015123067 0.47180563 0.26259357 0.22747372 -0.16253072 -0.29429424 0.51256007 0.086228885 -0.3455561 -0.20844287 -0.6342756 0.0961038 -0.2769365 -0.12902786 -0.16275276 0.23792389 -0.10359646 -0.28466105 0.13190874 0.24278855 0.10133687 0.15090789 -0.37232426 0.06838307 0.09080412 -0.12556502 0.2335601 0.2953645 0.096107356 -0.32790342 0.20399418 0.03189876 0.1513113 -0.21098445 -0.18775856 -0.37376773 0.19452865 0.19217001 0.24922341 -0.44095385 0.31132895 -0.22369342 0.13810523 0.2627766 -0.22502147 0.316588 0.10467404 0.049480528 -0.08486759 -0.32951763 0.09234893 -0.1776675 0.023031484 -0.43951592 0.401816 -0.120323434 0.06078612 0.10000638 0.4671932 0.5347553 -0.13000159 0.40145183 0.4195487 -0.061207164 0.28778636 0.58770883 0.31082526 0.053091988 -0.33131236 0.13804713 -0.10802761
동물 0.0037276347 0.25878596 0.11745507 0.049376797 0.06756246 -0.55424213 0.25976318 0.7826377 -0.30401507 -0.16326532 -0.29741752 -0.54593295 -0.17884448 0.10205565 0.07259006 -0.23535416 0.07531529 -0.24671304 -0.11903709 -0.69529086 0.13324606 0.22506806 -0.058286972 -0.1981381 -0.038195346 0.016430046 -0.38138768 -0.53836316 -0.01751964 0.022588188 0.52397823 0.3065437 0.2480476 -0.18866882 -0.3270814 0.59029764 0.0801905 -0.41237774 -0.24530455 -0.7226337 0.10573471 -0.32310787 -0.13771468 -0.18592094 0.28197625 -0.108504325 -0.33221588 0.1438272 0.285412 0.113568604 0.18630867 -0.42487967 0.092135586 0.10804437 -0.15475364 0.25274697 0.34381184 0.09602348 -0.3635586 0.25251952 0.041374512 0.16904947 -0.23527914 -0.24304883 -0.43405393 0.22694175 0.22361238 0.28310764 -0.5140477 0.35023007 -0.24769649 0.14614308 0.2948519 -0.26915395 0.34370852 0.11244649 0.06952151 -0.09098572 -0.36165267 0.10992726 -0.21239252 0.041666795 -0.50755894 0.44087908 -0.11841483 0.06428311 0.11530464 0.55030066 0.60316217 -0.13510573 0.46139696 0.47588944 -0.0792556 0.30824918 0.68358123 0.35881054 0.061793964 -0.38812888 0.14937851 -0.122559756
디자인 0.007868774 0.24059668 0.10359529 0.04768528 0.0604454 -0.538213 0.25919884 0.7521721 -0.30482465 -0.14547622 -0.2668588 -0.52540886 -0.16439243 0.10664879 0.055300653 -0.22863041 0.08288641 -0.23834056 -0.117323674 -0.67775786 0.13439393 0.2104155 -0.075590506 -0.17531608 -0.04205698 0.008848919 -0.35090905 -0.50833255 -0.018321995 0.029483035 0.5198809 0.29372108 0.25182855 -0.1896063 -0.31432575 0.567132 0.08523181 -0.38111553 -0.21535699 -0.7071932 0.11426688 -0.31406727 -0.13665591 -0.16943127 0.25921294 -0.11402856 -0.31608748 0.14732017 0.27926236 0.10151907 0.15723747 -0.40374866 0.09913026 0.094863854 -0.13488266 0.2489573 0.3279936 0.11378093 -0.3399067 0.24753371 0.045068916 0.15087962 -0.22323546 -0.23293015 -0.43175703 0.20946465 0.21206142 0.27915454 -0.49346378 0.32527488 -0.2386964 0.14481485 0.2883642 -0.24654439 0.34846163 0.09842333 0.054794207 -0.087292284 -0.35654563 0.112893835 -0.19507208 0.044053435 -0.48819533 0.42497092 -0.13088572 0.059159815 0.10969536 0.51527995 0.58698845 -0.13068321 0.4397219 0.46188748 -0.049276486 0.3074291 0.6491424 0.32668352 0.06313828 -0.36505306 0.1609563 -0.11223602
교육 0.014970485 0.21447608 0.10081967 0.034623932 0.06387023 -0.44476828 0.20125443 0.6259625 -0.25839758 -0.13766178 -0.23069228 -0.43520093 -0.13759314 0.090548486 0.060755476 -0.18190302 0.06065376 -0.18634424 -0.09715433 -0.5738713 0.109504215 0.1733933 -0.05233962 -0.15357931 -0.037823327 0.0083787665 -0.30727714 -0.42642897 -0.010696928 0.027958758 0.4193257 0.22989698 0.20928659 -0.16141295 -0.25908133 0.48336422 0.06658359 -0.3167024 -0.17686705 -0.58423966 0.08973892 -0.26702574 -0.10907969 -0.13868436 0.22462554 -0.103912145 -0.2630545 0.115128376 0.22820672 0.09286706 0.14353946 -0.33366513 0.06724914 0.09466343 -0.12944797 0.2110223 0.28526258 0.09016657 -0.28620192 0.19507617 0.030850818 0.14598563 -0.19876656 -0.17861326 -0.36200905 0.19162622 0.17882289 0.23284802 -0.4055805 0.2812492 -0.20366599 0.12149067 0.23811735 -0.2122769 0.2877871 0.07723806 0.04305049 -0.06092628 -0.28614148 0.09684705 -0.17676061 0.028517602 -0.4089068 0.3702995 -0.10261948 0.061860465 0.08012807 0.43473238 0.4939232 -0.114180714 0.35641503 0.38198513 -0.048474874 0.24442334 0.55238426 0.2854232 0.05063872 -0.31858364 0.12062033 -0.09300188
특강 0.009358482 0.16143212 0.066136524 0.04275244 0.036891747 -0.34439996 0.1776516 0.491226 -0.20493446 -0.09528728 -0.19219927 -0.35524777 -0.096310794 0.052931618 0.035797052 -0.1555964 0.058102556 -0.14925073 -0.07786229 -0.45349354 0.09446875 0.15749358 -0.03377215 -0.11383241 -0.023071328 0.013219837 -0.2354715 -0.32902536 -0.015246268 0.019017836 0.33253935 0.17994015 0.1734683 -0.1281306 -0.20644611 0.37327993 0.055566497 -0.2618037 -0.14087667 -0.46377778 0.060437873 -0.2122439 -0.088209994 -0.1112641 0.17374887 -0.06325111 -0.22010216 0.08786378 0.17328155 0.063946076 0.11448721 -0.27762726 0.045856126 0.06206272 -0.087444514 0.16216429 0.22281933 0.058241803 -0.23183201 0.16130112 0.019923307 0.10004243 -0.1576898 -0.1453782 -0.28952786 0.14471705 0.13403203 0.18579426 -0.32473528 0.22358719 -0.16396059 0.095053464 0.19710141 -0.16903347 0.22220506 0.062469862 0.049381565 -0.062588446 -0.23565064 0.06612037 -0.13347775 0.034411073 -0.31590676 0.27631384 -0.090448126 0.031742513 0.05612691 0.33746037 0.37830684 -0.09646639 0.2854909 0.30248055 -0.036162373 0.20320858 0.4396923 0.21860704 0.048934706 -0.23707591 0.09751675 -0.082340546
간호사 -0.00021488064 0.17887549 0.09324984 0.048039485 0.06262398 -0.4081272 0.19639955 0.56265473 -0.2168945 -0.124486454 -0.20862621 -0.40601036 -0.13102935 0.07487916 0.059332673 -0.16164693 0.0524665 -0.16905312 -0.0854778 -0.5001761 0.0863344 0.174993 -0.058658093 -0.14181362 -0.029304238 0.0135624865 -0.27819684 -0.37870786 -0.01917002 0.012413449 0.39035556 0.21663874 0.19500403 -0.12730615 -0.24465843 0.43137026 0.07334034 -0.28530392 -0.1595229 -0.52478117 0.08326599 -0.23187494 -0.10403361 -0.13782403 0.1993214 -0.077419 -0.24982458 0.11517433 0.21062075 0.07809409 0.1216355 -0.30332306 0.07055753 0.086189054 -0.11849375 0.19677731 0.24913618 0.06595769 -0.25215936 0.18522125 0.028015582 0.13208532 -0.18235016 -0.17350982 -0.31846333 0.15771423 0.15451024 0.20172451 -0.37750468 0.25130263 -0.17541426 0.11439028 0.22183384 -0.19135807 0.26567024 0.07400991 0.054109275 -0.065041095 -0.26193613 0.07430097 -0.14797162 0.02908535 -0.35725817 0.33278888 -0.10030363 0.05955819 0.07569834 0.3905466 0.43400505 -0.115659244 0.32256913 0.35159546 -0.036870696 0.23720835 0.47930443 0.2598155 0.03857146 -0.2727682 0.12329511 -0.08582755
교사 -0.0020812443 0.20272289 0.09780801 0.039194416 0.050063904 -0.4413919 0.21447256 0.6260344 -0.24409254 -0.12730417 -0.24434637 -0.43902177 -0.13073356 0.07344409 0.053945262 -0.18561786 0.064844504 -0.19273582 -0.09635748 -0.56953406 0.10992867 0.18273306 -0.057024322 -0.1478464 -0.041982487 0.008621915 -0.291581 -0.4334815 -0.02380888 0.022694422 0.42000097 0.23764007 0.21603644 -0.15538597 -0.25805706 0.47916448 0.0698508 -0.3273166 -0.18502648 -0.5756501 0.09584863 -0.25520986 -0.12231754 -0.15474387 0.2279865 -0.0907087 -0.26182523 0.1183364 0.239671 0.07910183 0.15078837 -0.34968126 0.06935608 0.096674725 -0.13557616 0.21638449 0.27080905 0.07870652 -0.291899 0.2017123 0.024281137 0.14739707 -0.20206778 -0.18483342 -0.342269 0.1847245 0.16928837 0.23053153 -0.41800413 0.27869725 -0.19758925 0.13620861 0.25058788 -0.22018416 0.3001912 0.07994344 0.057369854 -0.0790517 -0.3040821 0.08890386 -0.1802637 0.022926921 -0.40088803 0.36293143 -0.1146834 0.047131695 0.07691142 0.43783215 0.4964337 -0.11779188 0.37364164 0.38662988 -0.039928738 0.2603501 0.5546343 0.27903038 0.054624274 -0.30851713 0.11723944 -0.08311292
이번 0.0017605518 0.1795767 0.08235796 0.035921916 0.047859896 -0.3744233 0.1763094 0.51238483 -0.21404281 -0.11168477 -0.1935366 -0.37118304 -0.106632926 0.069391616 0.049217433 -0.16094604 0.049473174 -0.15237474 -0.065952405 -0.46118948 0.09062365 0.14277865 -0.03925097 -0.12959734 -0.037399027 0.021985 -0.24862655 -0.3571436 -0.020324154 0.025876204 0.34844962 0.19822596 0.16960303 -0.12172476 -0.21735537 0.38094106 0.05909642 -0.25744593 -0.1494815 -0.4850123 0.0778464 -0.20697118 -0.086934224 -0.12052571 0.17250437 -0.08148008 -0.21441315 0.08976826 0.19977903 0.062081523 0.10706704 -0.28390184 0.066046655 0.06677748 -0.09391004 0.16305138 0.23353505 0.07389813 -0.24113983 0.17365007 0.027847404 0.11340368 -0.15412211 -0.14563794 -0.28569734 0.1602617 0.14248516 0.17647517 -0.34034213 0.225261 -0.16993861 0.10528287 0.20706931 -0.18026902 0.24354549 0.07469495 0.040442593 -0.056108054 -0.23656204 0.063825354 -0.13614774 0.032525204 -0.33152896 0.28849182 -0.09353573 0.035606436 0.07353546 0.36367303 0.40879145 -0.09914642 0.2997778 0.32346785 -0.05149118 0.19827403 0.45276126 0.22182599 0.04262636 -0.2592453 0.1128045 -0.08088925
작가 0.016505614 0.26779622 0.11602337 0.049512487 0.07678547 -0.56805193 0.275643 0.7947853 -0.3085574 -0.17265558 -0.30386308 -0.5606701 -0.17345092 0.09708821 0.077267826 -0.2285993 0.079444155 -0.23936965 -0.106907636 -0.7148623 0.14270823 0.22904351 -0.07958411 -0.18722144 -0.05611122 0.03257151 -0.38854986 -0.5340439 -0.029094549 0.032272357 0.54512835 0.28707853 0.25237778 -0.19319998 -0.33174935 0.6048531 0.09592957 -0.41112906 -0.23927219 -0.73020273 0.100586064 -0.3239194 -0.14890265 -0.19597378 0.28638095 -0.11900459 -0.34935603 0.13733456 0.29251343 0.10187409 0.18076745 -0.4224473 0.09504369 0.105832584 -0.14977707 0.2555126 0.36267743 0.10582841 -0.36903745 0.2560251 0.031638164 0.16935156 -0.24898973 -0.24075444 -0.4467509 0.22380112 0.2251055 0.2732506 -0.5216728 0.33828464 -0.26208 0.16204502 0.2927051 -0.2771084 0.3673827 0.10545552 0.06699025 -0.07767345 -0.38453934 0.120712005 -0.22669387 0.0423607 -0.4959082 0.46695107 -0.13825639 0.07225465 0.09771142 0.55244946 0.61200345 -0.15842764 0.4623673 0.4964795 -0.06812271 0.3104161 0.69192344 0.34919947 0.058706213 -0.3976075 0.15987343 -0.10538305
후 -0.0021844562 0.2642411 0.123536214 0.043525815 0.071981415 -0.5461004 0.2609398 0.7571372 -0.3073992 -0.16758265 -0.27835107 -0.5534405 -0.17442773 0.10225388 0.06969917 -0.22813505 0.08207278 -0.23254699 -0.10496926 -0.6867613 0.12419132 0.21425258 -0.07743365 -0.17357107 -0.041390315 0.013370219 -0.3606741 -0.50930655 -0.015962983 0.02055417 0.5186772 0.2883857 0.24482955 -0.18048151 -0.31999472 0.576409 0.09884715 -0.407108 -0.21988717 -0.7175701 0.10839898 -0.32402068 -0.13651907 -0.1703625 0.26748896 -0.120703004 -0.33506346 0.14751823 0.28580394 0.11216593 0.16779682 -0.42352363 0.09833984 0.10537434 -0.14678116 0.26631102 0.3369499 0.10690838 -0.36155763 0.23644836 0.026977688 0.1681314 -0.24743372 -0.22877981 -0.43409178 0.23066235 0.21570846 0.28254342 -0.49607787 0.33452037 -0.24880303 0.16591574 0.30173874 -0.2695482 0.35935536 0.11437661 0.07069193 -0.0928723 -0.36331126 0.10930816 -0.20665264 0.03249115 -0.49354205 0.44769186 -0.11753253 0.06586844 0.097835526 0.5307468 0.5934744 -0.13968273 0.44494346 0.47281522 -0.07158171 0.30790982 0.6732971 0.3491939 0.070763215 -0.38304037 0.16751277 -0.112463325
중요 0.005820529 0.24038237 0.10086628 0.050786905 0.07642589 -0.4907869 0.2381909 0.69407195 -0.2797882 -0.15505013 -0.25782856 -0.49578297 -0.15658997 0.09396458 0.06583908 -0.21513927 0.077304415 -0.20473902 -0.10738685 -0.6284705 0.10709125 0.19375107 -0.05680688 -0.173725 -0.042598203 0.010204177 -0.3409406 -0.47698575 -0.022510745 0.026442312 0.46831486 0.2550019 0.22547744 -0.16936547 -0.30272165 0.52523637 0.089245014 -0.3595375 -0.19993365 -0.6426946 0.094368875 -0.28620195 -0.11760498 -0.16122615 0.24815351 -0.104922086 -0.30557522 0.13644342 0.2615021 0.09652996 0.1666744 -0.38280153 0.08465086 0.0914415 -0.14746182 0.23668753 0.31562093 0.10166804 -0.33530474 0.22524329 0.031875435 0.15697604 -0.21782574 -0.19966424 -0.38391557 0.19517706 0.18376563 0.25826722 -0.45515224 0.29825693 -0.22618397 0.14374381 0.27631435 -0.23863353 0.3206788 0.08988464 0.047181536 -0.07529218 -0.3298117 0.0913652 -0.19008994 0.021925567 -0.44698048 0.40697786 -0.112909205 0.06955023 0.10230117 0.48552454 0.55084324 -0.124060415 0.41280463 0.4425342 -0.05151505 0.28613266 0.61436325 0.3095923 0.054644044 -0.33705887 0.14546506 -0.10865218
방법 0.0045089903 0.21858943 0.11130588 0.04625601 0.06841229 -0.46747458 0.23458317 0.6570228 -0.2723857 -0.14233086 -0.2524704 -0.48429275 -0.14518663 0.0789097 0.06843613 -0.20289138 0.064885534 -0.21320345 -0.09817695 -0.6162527 0.11310229 0.19998313 -0.06365039 -0.1511042 -0.040335767 0.009562489 -0.32276848 -0.4547132 -0.028497899 0.0146039035 0.45201883 0.25113398 0.22511134 -0.16992575 -0.28877786 0.50998974 0.07723474 -0.34474927 -0.20016582 -0.6163487 0.10059588 -0.28716645 -0.11831885 -0.1494711 0.23464388 -0.09334041 -0.2912253 0.120269425 0.23767205 0.10236908 0.13994443 -0.36490545 0.07798403 0.09126466 -0.12230698 0.21783003 0.28874806 0.10151428 -0.32199788 0.22346011 0.024240863 0.15245931 -0.20864764 -0.20282733 -0.38308537 0.18872166 0.19440569 0.24799246 -0.43683782 0.30196723 -0.20819528 0.14063203 0.25999457 -0.2378994 0.31737643 0.08410256 0.05041615 -0.07300114 -0.31085104 0.08599198 -0.18091269 0.03625095 -0.43547416 0.39549774 -0.115034856 0.06818736 0.08418096 0.47376078 0.53236735 -0.13506888 0.38900557 0.4076491 -0.04579264 0.2802323 0.5760557 0.29979274 0.0564721 -0.33958352 0.13855052 -0.110408075
노력 0.006175501 0.18337919 0.09391618 0.04592513 0.051862862 -0.4088151 0.18399607 0.56977326 -0.22406514 -0.110717036 -0.20927438 -0.40909258 -0.11864153 0.08407695 0.05857659 -0.16323252 0.053150345 -0.18302223 -0.07390996 -0.5265498 0.09880015 0.17532717 -0.05676292 -0.12989043 -0.041533932 0.020947516 -0.2677892 -0.3819082 -0.02698531 0.030677464 0.3983163 0.21313624 0.19178446 -0.13265878 -0.24443904 0.44109604 0.06553295 -0.29925302 -0.16886422 -0.53537333 0.07808303 -0.24709807 -0.1007069 -0.12519804 0.2068596 -0.07963473 -0.24860278 0.1113736 0.20350723 0.0745544 0.13833892 -0.30264893 0.061484147 0.07618985 -0.1070852 0.19562533 0.26011902 0.07076698 -0.26816082 0.18116333 0.024859821 0.12831004 -0.18439108 -0.16436058 -0.32331446 0.17453884 0.15886307 0.21513428 -0.37466887 0.2583928 -0.18992053 0.10815419 0.22082716 -0.1971444 0.27581793 0.08266201 0.039916545 -0.05651894 -0.26978582 0.0699937 -0.1500021 0.023579946 -0.37559187 0.33880126 -0.0862977 0.05867718 0.078577824 0.4072402 0.45346627 -0.11509742 0.34157425 0.35320225 -0.0560836 0.24003153 0.49392137 0.26421386 0.042631842 -0.27418244 0.11293172 -0.081382506
꿈 0.014844595 0.19136892 0.08308045 0.031712934 0.043914024 -0.39009345 0.19770543 0.54804265 -0.21607547 -0.10873136 -0.21727823 -0.39421672 -0.12714314 0.06908797 0.04908223 -0.17280227 0.05471026 -0.17840318 -0.087018974 -0.51434505 0.10359745 0.17290857 -0.05240377 -0.13545533 -0.026249642 0.01553471 -0.27590007 -0.384666 -0.01785001 0.029940162 0.38514134 0.21937184 0.19116883 -0.13697003 -0.22734544 0.43496704 0.07608519 -0.28117368 -0.17346974 -0.5147202 0.070246466 -0.24112594 -0.11206396 -0.12746993 0.19776681 -0.090002865 -0.23084247 0.11340573 0.20975815 0.08645738 0.120715916 -0.31010258 0.06843607 0.077978455 -0.11867523 0.19331083 0.24389558 0.07101758 -0.25786987 0.18484032 0.031577613 0.123316556 -0.16489145 -0.16123544 -0.30562755 0.16022688 0.15912406 0.2076903 -0.37488544 0.25338697 -0.17612232 0.11892017 0.21494819 -0.19399115 0.2511999 0.07300217 0.041936915 -0.06713313 -0.26129887 0.08667703 -0.14651297 0.017064206 -0.36363485 0.3168444 -0.08866041 0.03873988 0.08239594 0.39180204 0.43363568 -0.09586946 0.33135167 0.34788954 -0.039899494 0.21511358 0.47597432 0.24522506 0.0590928 -0.2723159 0.120611936 -0.08885954
언어 0.008390343 0.19716693 0.09069676 0.03479403 0.06077202 -0.42318088 0.20405507 0.5820445 -0.23670496 -0.12556368 -0.22612175 -0.42083558 -0.12942849 0.07757831 0.047244627 -0.17704785 0.054168705 -0.18348615 -0.083930865 -0.5375235 0.10121476 0.17953694 -0.052316073 -0.13933282 -0.03834237 0.010258285 -0.27790835 -0.3891943 -0.009177299 0.018478274 0.40443477 0.22511657 0.1922601 -0.12969536 -0.25404292 0.43821934 0.07857825 -0.29428732 -0.16860391 -0.54616225 0.08916587 -0.24015562 -0.10606888 -0.12604389 0.20866305 -0.08446996 -0.24709724 0.0969963 0.20844488 0.082461424 0.12634245 -0.30578125 0.07650134 0.073297486 -0.122685805 0.18690872 0.26081806 0.078041315 -0.27440196 0.18192159 0.030452555 0.13935263 -0.18629436 -0.1821319 -0.32257012 0.16547166 0.1718861 0.21227773 -0.38493413 0.2450071 -0.19482927 0.124495685 0.22498748 -0.19208726 0.2690874 0.08265581 0.048830073 -0.065736875 -0.2839119 0.08223425 -0.1546865 0.022842728 -0.37289086 0.332562 -0.08561563 0.049469877 0.09114994 0.3998108 0.4441313 -0.11618715 0.33378035 0.36330944 -0.043517232 0.23637234 0.51838076 0.2607201 0.055969574 -0.2879843 0.11934716 -0.08174423
학생 0.0077785905 0.21853268 0.088248216 0.029757673 0.06013966 -0.44548294 0.21048583 0.62072986 -0.25547975 -0.13982312 -0.22506288 -0.44920313 -0.13820669 0.08049419 0.053861123 -0.19624424 0.065522686 -0.19311176 -0.08090229 -0.57835424 0.10057309 0.18059276 -0.055409227 -0.15693891 -0.043814078 0.0070241503 -0.2939831 -0.43300122 -0.023562977 0.023395536 0.4312877 0.22710975 0.21507399 -0.15446107 -0.26500252 0.46750426 0.06617957 -0.32161197 -0.18121023 -0.57943934 0.09351686 -0.26840323 -0.11556921 -0.14753726 0.22052506 -0.08972063 -0.26556078 0.1098029 0.23396352 0.09373203 0.1352007 -0.33478284 0.06888596 0.09875712 -0.120498024 0.21352068 0.27667356 0.077067226 -0.28671467 0.19657896 0.03455477 0.14240207 -0.20366427 -0.18647048 -0.34898192 0.18097271 0.18651548 0.22232267 -0.41682026 0.28035554 -0.20330021 0.12098896 0.24432586 -0.20838009 0.28479064 0.0819669 0.042791072 -0.06764331 -0.301156 0.100475594 -0.17106333 0.029156037 -0.40361533 0.36965376 -0.103353344 0.046009593 0.078798026 0.4374653 0.5002233 -0.11390217 0.358858 0.3835502 -0.05875786 0.2572074 0.53661144 0.28411832 0.056779772 -0.31272727 0.11772463 -0.086748384
기술 0.0037537462 0.2209738 0.098590486 0.054059196 0.0680688 -0.49675193 0.23179606 0.6893515 -0.2854821 -0.15063338 -0.25821355 -0.5000363 -0.14947309 0.09123422 0.06839179 -0.20517415 0.073852465 -0.20462584 -0.10072735 -0.61505497 0.11528928 0.19856276 -0.07132007 -0.1658659 -0.029635886 0.019970112 -0.3382919 -0.47013792 -0.028446797 0.030458089 0.4644607 0.26731843 0.22018416 -0.17129625 -0.29940137 0.52782726 0.071997166 -0.36682782 -0.21305528 -0.6444538 0.09180701 -0.28376716 -0.1178964 -0.16295123 0.23574053 -0.10081046 -0.28791508 0.122775406 0.24647324 0.09936352 0.16246405 -0.37992316 0.09044299 0.08788415 -0.14521122 0.2249383 0.30871132 0.09312998 -0.3182249 0.22701332 0.035689544 0.14853233 -0.22125232 -0.21393012 -0.39106303 0.2094015 0.18637703 0.2514356 -0.44750726 0.3025089 -0.22600105 0.13497493 0.2588713 -0.24237949 0.32173213 0.088444926 0.052735895 -0.073300205 -0.3257763 0.091228835 -0.19386908 0.035568014 -0.43730712 0.39472324 -0.111836284 0.06478903 0.09568632 0.48032197 0.5463015 -0.1366607 0.4076386 0.41758105 -0.061670825 0.28750142 0.59620965 0.31684148 0.06322412 -0.35111654 0.14204107 -0.108345866
성적 -0.00559299 0.19473986 0.09652873 0.04489468 0.05067149 -0.41653174 0.1899217 0.5777651 -0.22966297 -0.13320196 -0.21415217 -0.42519164 -0.12479837 0.08225522 0.045925595 -0.17300265 0.061141714 -0.18605673 -0.084804 -0.5258746 0.0876022 0.16204567 -0.05430198 -0.13116346 -0.033298027 0.02655068 -0.28762522 -0.38438544 -0.023907475 0.014475492 0.39160565 0.22366272 0.18871339 -0.13335626 -0.24867754 0.44493887 0.077649936 -0.31121698 -0.17405932 -0.5463701 0.07180162 -0.2401331 -0.10274457 -0.13750629 0.20486389 -0.0966698 -0.251052 0.11094424 0.22339937 0.08743467 0.12750939 -0.31160104 0.06420002 0.07787038 -0.119593926 0.19146724 0.26455316 0.07178206 -0.28302956 0.18062161 0.033649445 0.12945434 -0.17547233 -0.16192788 -0.33352545 0.1650291 0.1706517 0.21606962 -0.37419397 0.2688906 -0.17676511 0.11633231 0.22574934 -0.19171521 0.27976418 0.09224322 0.037791487 -0.07062156 -0.27118194 0.08402753 -0.16022699 0.03338447 -0.3657331 0.3313963 -0.09809708 0.04188653 0.08822675 0.4096869 0.45532322 -0.10729644 0.34755632 0.37076524 -0.039482985 0.24057192 0.50954366 0.2693325 0.053361278 -0.29072422 0.10982083 -0.08454314
분석 -0.00291339 0.2505112 0.10632781 0.04547497 0.0712923 -0.51348454 0.2356675 0.72011507 -0.29688856 -0.15850072 -0.26421502 -0.5139953 -0.14920938 0.0861005 0.064549066 -0.21822064 0.084508896 -0.23105736 -0.09462107 -0.6644397 0.11229263 0.21121728 -0.0715011 -0.17730598 -0.046130113 0.020445092 -0.35660446 -0.4865853 -0.018713683 0.024700735 0.4913209 0.28082803 0.22647004 -0.18125877 -0.3021583 0.5585758 0.077597186 -0.38477337 -0.21515763 -0.68183416 0.1036962 -0.291604 -0.13699673 -0.17486364 0.26379088 -0.10908116 -0.3111777 0.13018236 0.25526708 0.0938249 0.15793525 -0.38756827 0.08598905 0.111336075 -0.13526912 0.23954087 0.31207588 0.101482056 -0.3432353 0.2386624 0.0365413 0.15783001 -0.21870364 -0.21987778 -0.41067758 0.21068561 0.21247599 0.26615703 -0.46925586 0.32049784 -0.23024277 0.1578187 0.27085233 -0.24744317 0.32822105 0.10919597 0.05438084 -0.08235978 -0.33654672 0.09195028 -0.19983178 0.035758782 -0.4675 0.42317855 -0.11441537 0.058991592 0.104948446 0.51280725 0.566707 -0.12932114 0.41392568 0.44428638 -0.050034586 0.29698944 0.6323278 0.31890705 0.067538135 -0.35648426 0.15895636 -0.10809477
도움 0.012928115 0.18661328 0.08114628 0.035158284 0.058492832 -0.40933833 0.20089181 0.55996966 -0.23810902 -0.112330385 -0.20740484 -0.41275704 -0.1273426 0.07230036 0.049899876 -0.16194141 0.06260655 -0.17746913 -0.08522123 -0.52318454 0.0867804 0.17357524 -0.062324695 -0.14022137 -0.041369338 0.023735104 -0.26863444 -0.38763183 -0.014204815 0.018454222 0.4025279 0.21243098 0.19305116 -0.14384954 -0.23365414 0.44681814 0.07631475 -0.29880568 -0.17130716 -0.54187346 0.08887698 -0.24861681 -0.11074919 -0.12855615 0.20043963 -0.07875788 -0.25316045 0.11716038 0.21326457 0.07072704 0.13231826 -0.31586874 0.0738134 0.0888328 -0.123390265 0.20074278 0.26122808 0.08467849 -0.27570027 0.17568958 0.016032185 0.1313048 -0.182263 -0.16445285 -0.31740907 0.1758811 0.16324222 0.2067349 -0.3728187 0.25654906 -0.19158575 0.1119699 0.21985784 -0.1909537 0.2652451 0.06919866 0.045596477 -0.056520708 -0.26439303 0.08554757 -0.16211887 0.02096181 -0.36862424 0.32440957 -0.10244481 0.050118174 0.07972952 0.40522113 0.45255604 -0.09949257 0.32567465 0.3668382 -0.04995487 0.23198695 0.49579445 0.2520778 0.048643306 -0.2922815 0.12780191 -0.0801429
문제 0.0031857882 0.25525263 0.12494729 0.043706305 0.07850508 -0.53247684 0.25808376 0.7455042 -0.3141748 -0.1496555 -0.28226393 -0.5454378 -0.16271943 0.09235489 0.07269645 -0.23268877 0.079585485 -0.2309291 -0.11061256 -0.6868548 0.13369755 0.22142969 -0.0795535 -0.1807085 -0.05378768 0.015190658 -0.35523304 -0.5050298 -0.030236298 0.027694574 0.521298 0.27628323 0.2424978 -0.18357867 -0.32973018 0.5756886 0.09743172 -0.38898882 -0.22114226 -0.7022785 0.10286522 -0.32092744 -0.13826278 -0.16790177 0.2682431 -0.112623066 -0.3125463 0.14424898 0.2680505 0.112064295 0.18049683 -0.4163996 0.096644506 0.10063551 -0.14929233 0.25857478 0.33005723 0.094629526 -0.3591256 0.22816694 0.026775766 0.17665993 -0.23287481 -0.23506898 -0.41656637 0.22736728 0.21987872 0.2814477 -0.5010593 0.32906705 -0.23755772 0.15616009 0.29503015 -0.2658346 0.35301873 0.114054285 0.049678538 -0.07432021 -0.3532448 0.103688784 -0.20718676 0.025275473 -0.48982742 0.43902767 -0.12608463 0.077099875 0.09394805 0.5187361 0.5968109 -0.13267323 0.44238108 0.47543553 -0.05431873 0.29928342 0.66773367 0.3306024 0.062751435 -0.38047796 0.16170098 -0.11651501
결과 0.0069818245 0.22346808 0.101234265 0.03515268 0.057044767 -0.48038676 0.2287113 0.66767716 -0.27136034 -0.13686982 -0.25443006 -0.46586755 -0.14370784 0.07949216 0.056371484 -0.19349709 0.071499564 -0.21257253 -0.10457306 -0.61654425 0.10850041 0.20094138 -0.070738785 -0.16095263 -0.03745862 0.019515457 -0.33036274 -0.4443486 -0.022409506 0.028051142 0.44803873 0.26152402 0.21156104 -0.16432162 -0.28596482 0.50623083 0.07713637 -0.3500455 -0.19467784 -0.6293183 0.09010555 -0.28762615 -0.113696754 -0.15135103 0.24724425 -0.09652015 -0.28928936 0.13327926 0.23827267 0.0957376 0.1468857 -0.3596123 0.084267855 0.09191733 -0.13710971 0.22115548 0.298367 0.10047701 -0.32065937 0.21977666 0.027740467 0.13820967 -0.21398646 -0.19793622 -0.3705588 0.20539944 0.19818151 0.25052246 -0.44073835 0.29082897 -0.20380095 0.14220782 0.26589185 -0.2172142 0.31127924 0.09408741 0.044948913 -0.06722462 -0.30780828 0.089432925 -0.18236284 0.040482413 -0.4259188 0.39383975 -0.10027392 0.057238303 0.10447641 0.4747696 0.52409345 -0.12644887 0.40178427 0.42187414 -0.060306776 0.266996 0.58216137 0.3024243 0.058983643 -0.3430799 0.14012346 -0.089504935
게임 0.011830838 0.21778038 0.098961145 0.05577966 0.074725054 -0.44706506 0.21390817 0.63932043 -0.26726004 -0.11830721 -0.2417298 -0.43952477 -0.15243088 0.07890321 0.069552995 -0.19888471 0.06491538 -0.18835028 -0.07629763 -0.5801079 0.09617774 0.20185436 -0.07304625 -0.15155044 -0.026960108 0.003706299 -0.31266314 -0.44613242 -0.018970976 0.030221226 0.4235958 0.23992199 0.21893695 -0.16242929 -0.2632908 0.49313712 0.070390426 -0.3397104 -0.17791578 -0.5975068 0.103762135 -0.26810753 -0.11144071 -0.14164595 0.22591083 -0.08953024 -0.28098422 0.13224536 0.23163381 0.08202752 0.14585438 -0.3294845 0.06906342 0.09247868 -0.11734373 0.21295828 0.28241992 0.09794513 -0.28517494 0.1947325 0.027706895 0.1544546 -0.20160432 -0.2018396 -0.36092913 0.17466995 0.1855943 0.23009954 -0.41929683 0.2752711 -0.18626302 0.1374684 0.24878941 -0.21531336 0.3046059 0.07925138 0.057714146 -0.07402983 -0.3141745 0.07641111 -0.17516775 0.04054588 -0.40523806 0.34926906 -0.102093704 0.0534662 0.08096252 0.4559573 0.50825757 -0.11968347 0.37728035 0.39846325 -0.06813019 0.26474425 0.56482816 0.29122868 0.058064487 -0.32106692 0.1368495 -0.10439094
관계 0.009717073 0.22429608 0.10289373 0.04273327 0.06516266 -0.46394694 0.22449456 0.6598765 -0.25926697 -0.13545726 -0.2489007 -0.47236392 -0.15255503 0.08059968 0.061524525 -0.18915802 0.07128813 -0.2065705 -0.08970261 -0.5968765 0.1089195 0.19925353 -0.05226137 -0.15888704 -0.04383327 0.019759007 -0.30410355 -0.4321952 -0.022397762 0.030773997 0.4602776 0.23667476 0.22298387 -0.15451294 -0.28537092 0.50134456 0.088764675 -0.3493887 -0.18672188 -0.6183133 0.08322505 -0.26520434 -0.12474928 -0.14814283 0.23672785 -0.08752088 -0.2713304 0.11014693 0.24239595 0.08069579 0.14866069 -0.3422154 0.07210176 0.096841626 -0.14007197 0.20965584 0.30147398 0.09233256 -0.29705334 0.21057849 0.031367615 0.1503552 -0.21593007 -0.18973435 -0.37526053 0.1973712 0.18029106 0.23745786 -0.42384046 0.2845007 -0.21784464 0.12903817 0.23956011 -0.21149753 0.29703045 0.09020017 0.041062076 -0.076620944 -0.31678188 0.09917316 -0.17316349 0.032461196 -0.4074364 0.38121969 -0.094817944 0.067792244 0.09445521 0.45897073 0.50541776 -0.12597981 0.38798705 0.3988077 -0.052040193 0.25634605 0.58384997 0.29180816 0.056155313 -0.3306015 0.14188987 -0.105733275
흥미 -0.0036588362 0.18386395 0.07883138 0.032543223 0.05567292 -0.36977986 0.18406892 0.5291955 -0.20367755 -0.1192679 -0.19204049 -0.3652382 -0.11722909 0.07018103 0.042714637 -0.1598047 0.0662876 -0.16053724 -0.07074156 -0.48357657 0.09352362 0.14842108 -0.054745138 -0.12372209 -0.02083851 0.00691215 -0.24911965 -0.3563977 -0.024281453 0.013318415 0.35275936 0.20604806 0.17026925 -0.13225569 -0.22229962 0.4037051 0.074109435 -0.28363737 -0.15536231 -0.49023688 0.07059787 -0.21971576 -0.08621176 -0.12470274 0.19483687 -0.08013261 -0.22678828 0.105471306 0.2011393 0.07285187 0.117857985 -0.27732024 0.057965167 0.08018701 -0.10441128 0.17093669 0.2434377 0.067931466 -0.24354069 0.16030486 0.025938056 0.12119979 -0.15793581 -0.16263735 -0.30125922 0.16064285 0.15122391 0.19108462 -0.3499411 0.23105441 -0.17694277 0.110010274 0.19735596 -0.17804857 0.2481439 0.07570019 0.03511873 -0.057841055 -0.25639483 0.06985706 -0.14354567 0.03203151 -0.3436762 0.30699265 -0.07763559 0.05658929 0.07898566 0.3606344 0.41657978 -0.09119317 0.31035367 0.33078128 -0.04387926 0.21756244 0.46367505 0.24376842 0.041822586 -0.27171692 0.115423284 -0.08382111
신체 0.0028800194 0.20805228 0.096635506 0.035719734 0.05863094 -0.4459448 0.21023789 0.6001353 -0.25417304 -0.12289649 -0.22916687 -0.43043596 -0.13069238 0.066316046 0.06483899 -0.18878113 0.06316465 -0.1821224 -0.08626285 -0.5530429 0.10650334 0.1808673 -0.05192086 -0.13875015 -0.034118034 0.0058192555 -0.28993857 -0.41884452 -0.00983309 0.022777965 0.42518142 0.23549655 0.19781174 -0.14010505 -0.26898322 0.47511804 0.08068514 -0.31556782 -0.18810835 -0.58113426 0.096885405 -0.2522239 -0.11574889 -0.15291382 0.21057425 -0.09227189 -0.26897156 0.1117606 0.22626126 0.07387851 0.13970616 -0.33582488 0.0692947 0.08478418 -0.13529076 0.1986544 0.26685643 0.07538126 -0.28567687 0.1968049 0.039512046 0.14803378 -0.19732818 -0.19575062 -0.3373505 0.18771046 0.18247604 0.21759138 -0.40315682 0.26130736 -0.20461154 0.13632387 0.2303939 -0.19549966 0.2768034 0.09812902 0.043345224 -0.058713548 -0.29811946 0.07897047 -0.15673438 0.015066944 -0.40184593 0.3598287 -0.1105735 0.0629394 0.090229794 0.4160607 0.4819088 -0.11276083 0.36749864 0.3849424 -0.056991544 0.24371316 0.5445196 0.26689923 0.061565954 -0.30693784 0.121014126 -0.099005
전문가 0.0077828374 0.21565522 0.108318806 0.036857564 0.07489666 -0.48563367 0.22033493 0.6741266 -0.26071486 -0.13679801 -0.2531835 -0.47718382 -0.15525077 0.08285744 0.053874962 -0.20146583 0.06536062 -0.21506137 -0.10184078 -0.6081595 0.11602845 0.20649886 -0.059655543 -0.15498316 -0.03329523 0.022162346 -0.330101 -0.45636487 -0.02026646 0.029517395 0.45499107 0.25642747 0.22752273 -0.16909413 -0.29692397 0.5207408 0.080021046 -0.3514276 -0.20741343 -0.62023354 0.09384271 -0.2810588 -0.124085255 -0.15847969 0.2440022 -0.111262776 -0.28590915 0.12032032 0.25757724 0.096840985 0.14668366 -0.36852413 0.071534485 0.106761865 -0.12508598 0.23004533 0.31239605 0.08813005 -0.3134356 0.21179357 0.020854816 0.14470665 -0.21182641 -0.20687732 -0.38750067 0.1981242 0.18822424 0.23605949 -0.43531194 0.30055785 -0.22471362 0.13670036 0.25242895 -0.22347854 0.31061557 0.101546116 0.05894203 -0.08011897 -0.33013526 0.08877975 -0.17548828 0.027756343 -0.4337021 0.38882214 -0.11905136 0.063803196 0.082996875 0.48354954 0.521131 -0.11986504 0.3925099 0.41867232 -0.05672613 0.27573907 0.5918365 0.3041065 0.057498477 -0.3276315 0.13211975 -0.10994139
산업 -0.003921318 0.25215912 0.10981213 0.040298358 0.073963635 -0.53042054 0.252048 0.74069446 -0.28425068 -0.1548962 -0.26944453 -0.5154035 -0.14694904 0.0917207 0.063372776 -0.22446182 0.07638236 -0.2245665 -0.102524795 -0.6729693 0.12712257 0.20607607 -0.07276934 -0.18550329 -0.033483762 0.022204999 -0.35411152 -0.48885247 -0.019784346 0.014684983 0.4933508 0.27525595 0.23272479 -0.16977048 -0.30375 0.55865866 0.08283679 -0.39259973 -0.21130824 -0.69020414 0.09963618 -0.31322208 -0.13632643 -0.18047453 0.2631506 -0.11899034 -0.30551535 0.13072036 0.2638374 0.101478636 0.1547732 -0.38794807 0.08344575 0.10344308 -0.13419433 0.2482343 0.32510155 0.10978011 -0.3433576 0.242053 0.040614348 0.15019159 -0.22594655 -0.22857703 -0.41850752 0.22385624 0.20461833 0.2607923 -0.47746274 0.3314526 -0.22535533 0.14024766 0.29205278 -0.23850468 0.33055675 0.098959535 0.057184093 -0.09292926 -0.3506552 0.11686374 -0.20400582 0.028380046 -0.4748625 0.41314214 -0.11716626 0.07150291 0.10377203 0.5109399 0.5857324 -0.14702289 0.4232363 0.4429751 -0.04895036 0.29515424 0.63365024 0.31862286 0.071547955 -0.3703303 0.14441095 -0.1047191
방송 -0.0011182276 0.24528185 0.11257113 0.0422207 0.06479984 -0.4926761 0.22502485 0.6946323 -0.27037147 -0.13925603 -0.2704747 -0.4928644 -0.15762842 0.097481884 0.07111945 -0.20665322 0.065775484 -0.20668247 -0.09827088 -0.6267853 0.110671565 0.20096749 -0.06781098 -0.15697393 -0.049105488 0.015309963 -0.33565554 -0.47148976 -0.016949143 0.024421295 0.47153977 0.2506166 0.21569523 -0.16804865 -0.29496917 0.51820445 0.09342452 -0.35397103 -0.19700746 -0.6483025 0.095115 -0.27964768 -0.13359235 -0.1720023 0.23686935 -0.10099169 -0.30888888 0.1323881 0.26536062 0.097707905 0.14624915 -0.3664226 0.0873054 0.09057577 -0.13279864 0.24220975 0.31851447 0.089495376 -0.3161418 0.21587908 0.022196215 0.1569049 -0.22302149 -0.2073347 -0.39662886 0.19443795 0.1924385 0.25043637 -0.45398334 0.31199333 -0.21794638 0.13322408 0.25577807 -0.24007168 0.31843576 0.08754557 0.06536548 -0.07125963 -0.3371416 0.10468222 -0.19327404 0.025152734 -0.44354585 0.40832627 -0.11881116 0.057462733 0.09070998 0.4912788 0.5479525 -0.13961263 0.39265418 0.43187726 -0.05492645 0.2828695 0.6091407 0.3096195 0.058103763 -0.34251544 0.14358936 -0.0938969
오늘 0.004832363 0.20619744 0.08789868 0.04160832 0.059694614 -0.4272874 0.21123089 0.59221166 -0.23172092 -0.12544478 -0.21134612 -0.41774407 -0.12803406 0.083992384 0.056963824 -0.17081606 0.06608486 -0.18159114 -0.08805511 -0.54495656 0.091854215 0.17217731 -0.05769158 -0.13840118 -0.03534793 0.0167871 -0.27861294 -0.40613014 -0.012825334 0.0294897 0.41176182 0.2250972 0.19473217 -0.14428076 -0.2594612 0.44600138 0.07236664 -0.30947632 -0.17138037 -0.55655587 0.08666181 -0.25234014 -0.10137633 -0.14214541 0.20656827 -0.08811438 -0.25542042 0.107563466 0.21570204 0.090361014 0.12249966 -0.31681392 0.06527586 0.09596747 -0.11394044 0.20392253 0.2594792 0.07862918 -0.2836407 0.18640207 0.032790408 0.12108588 -0.18048802 -0.17087951 -0.32521316 0.16964135 0.170325 0.20397376 -0.38647673 0.26961696 -0.18362264 0.11493811 0.22544329 -0.21044981 0.27478924 0.085171446 0.03967368 -0.0603935 -0.28466794 0.08770317 -0.15556143 0.02879649 -0.38247246 0.33157688 -0.10303539 0.052620415 0.07016388 0.42298684 0.46719 -0.11343747 0.35273093 0.36437187 -0.04766569 0.24048561 0.52425486 0.26844835 0.05035877 -0.29898548 0.11527202 -0.08128091
이야기 0.009521945 0.20425634 0.09671606 0.028332805 0.066855304 -0.42655596 0.20170732 0.5867121 -0.227929 -0.1309709 -0.21727988 -0.42649302 -0.12840827 0.08435918 0.04074303 -0.16533378 0.053823944 -0.17352955 -0.09260642 -0.5435477 0.091005646 0.17870453 -0.056102615 -0.1392046 -0.042880896 0.025354417 -0.27939597 -0.40381527 -0.02346975 0.029356947 0.4068387 0.21293026 0.19932692 -0.14899755 -0.24901141 0.45796305 0.06868989 -0.30763856 -0.16833593 -0.55448556 0.08547127 -0.24175741 -0.11900558 -0.14304367 0.21779235 -0.08809094 -0.24287409 0.109867215 0.22687401 0.07330642 0.13670418 -0.32924205 0.07295767 0.094664596 -0.11911662 0.20647974 0.25230297 0.079931974 -0.27239448 0.18319762 0.032248583 0.12254698 -0.18514992 -0.16539754 -0.32452452 0.17226897 0.17533919 0.20271084 -0.39007503 0.26399943 -0.19020161 0.12566024 0.23638251 -0.20624574 0.26947755 0.09147736 0.041785017 -0.07369248 -0.27892533 0.07569636 -0.16102974 0.02867808 -0.38546798 0.3393597 -0.1025047 0.049263965 0.083060905 0.41779262 0.45973197 -0.10225372 0.3434081 0.37490684 -0.043668818 0.24404006 0.5252402 0.26110968 0.0512909 -0.2972272 0.12702751 -0.09362705
전공 0.0006415492 0.20812088 0.08808408 0.041694876 0.056685094 -0.42303056 0.2017344 0.58211017 -0.22761193 -0.11688592 -0.2316003 -0.43080497 -0.12583555 0.07878828 0.04755353 -0.1682561 0.055003908 -0.1855505 -0.077575885 -0.5429808 0.09380357 0.18151131 -0.047810107 -0.14605425 -0.041083265 0.014181236 -0.27759367 -0.40473893 -0.013507492 0.018676508 0.41271782 0.22537647 0.20287625 -0.13395467 -0.2612267 0.45954305 0.063797 -0.3204934 -0.17011833 -0.5523563 0.08858673 -0.2592077 -0.10011193 -0.14828813 0.20504329 -0.08931307 -0.2585055 0.115103416 0.21467288 0.07545441 0.13943063 -0.3242762 0.07784058 0.082173616 -0.11908707 0.2049236 0.27222455 0.07954322 -0.28938892 0.18774906 0.033627044 0.13693994 -0.19197498 -0.1725816 -0.32602426 0.16570649 0.16672587 0.21754687 -0.39600703 0.25761458 -0.1843947 0.115728565 0.22417082 -0.19927701 0.28501827 0.08960591 0.042251904 -0.06848899 -0.27352345 0.08561946 -0.16866568 0.018329462 -0.38742357 0.35062957 -0.09448534 0.04520036 0.088677 0.41479072 0.46658635 -0.11694942 0.34928527 0.3701081 -0.04568826 0.23720483 0.51663035 0.26529926 0.048232187 -0.29846126 0.1315319 -0.08374497
냉동 0.0123858955 0.26707932 0.12305216 0.05005867 0.0877428 -0.5467178 0.25638232 0.7832633 -0.3185434 -0.16076945 -0.30591318 -0.5665652 -0.174516 0.105714224 0.06728583 -0.23173095 0.07538042 -0.23113467 -0.10063551 -0.69682 0.12841883 0.21618047 -0.06064041 -0.18685304 -0.0387756 0.02413916 -0.35960746 -0.52684414 -0.031072147 0.024009215 0.5408192 0.29329738 0.25679803 -0.17371787 -0.32852688 0.5870786 0.10618178 -0.41494507 -0.23424539 -0.71955967 0.10030974 -0.31060705 -0.14995158 -0.19256888 0.26530507 -0.11511539 -0.32393432 0.15905856 0.2914819 0.11208365 0.17538908 -0.43291837 0.10792629 0.10726496 -0.14798981 0.261779 0.3435338 0.103876695 -0.35317636 0.23863503 0.03481752 0.17537446 -0.24720182 -0.23788397 -0.4513362 0.21829806 0.21151415 0.27894646 -0.51945096 0.35504928 -0.24543467 0.15063569 0.29486677 -0.27373466 0.3453838 0.10955434 0.062065814 -0.07268826 -0.36166516 0.10953487 -0.20369162 0.028583478 -0.5059783 0.44954786 -0.13526785 0.06805231 0.11025102 0.54095536 0.6098205 -0.14263923 0.45515257 0.48209655 -0.06674329 0.32783294 0.6862636 0.3478592 0.059549943 -0.39699715 0.16135368 -0.11915693
군인 -0.0088742 0.15998982 0.06862323 0.029630996 0.04310354 -0.34676626 0.17599304 0.4890797 -0.18386446 -0.09473585 -0.17698106 -0.3445368 -0.10137972 0.061715733 0.051338516 -0.15394962 0.055817496 -0.14486709 -0.058726497 -0.45098817 0.09520325 0.149949 -0.04934876 -0.10456172 -0.029628797 0.018691443 -0.24325764 -0.3358668 -0.011334988 0.017570658 0.32237026 0.18135493 0.15381098 -0.11219183 -0.1968127 0.36821923 0.0639245 -0.25820726 -0.13849472 -0.45206195 0.057214852 -0.20214762 -0.09909005 -0.10827773 0.16633983 -0.060104713 -0.21035096 0.10145807 0.18618912 0.080249086 0.10731817 -0.26137105 0.059438914 0.070544206 -0.098423705 0.16780022 0.22533946 0.07327132 -0.22733796 0.16383342 0.021110112 0.110741176 -0.15733568 -0.15306376 -0.2826726 0.14596148 0.12914655 0.18480974 -0.3261801 0.21488407 -0.16189224 0.10995885 0.19678397 -0.16690448 0.22358042 0.059556473 0.032461718 -0.041070584 -0.23807481 0.071868226 -0.12806101 0.035455383 -0.30649114 0.28401193 -0.0760323 0.047628723 0.05549018 0.3340006 0.37974605 -0.09109788 0.2885106 0.30073085 -0.038749162 0.20166673 0.42878523 0.23105499 0.05084821 -0.24111298 0.102035485 -0.08306714
미래 0.009519144 0.20120315 0.09660844 0.03977596 0.068271376 -0.4256274 0.21566541 0.6046941 -0.24887414 -0.1329665 -0.23651835 -0.43173832 -0.123965524 0.087690644 0.050658654 -0.18118379 0.057752177 -0.17960164 -0.08020321 -0.5517515 0.11183895 0.16753708 -0.064237945 -0.13563201 -0.029485868 0.0062114447 -0.28385678 -0.41600707 -0.018598476 0.023919987 0.4073111 0.23609827 0.19373104 -0.15179908 -0.2519899 0.47083968 0.08214665 -0.312723 -0.17877406 -0.574779 0.082970634 -0.2543568 -0.10815873 -0.1340101 0.22185667 -0.0928977 -0.26587203 0.12182204 0.23388311 0.077725224 0.14092086 -0.32229143 0.07152768 0.09131453 -0.12811723 0.19565745 0.26517352 0.074715145 -0.29376465 0.19838576 0.020076722 0.14072534 -0.18915106 -0.1832318 -0.35221705 0.17269696 0.1727075 0.22919904 -0.40136194 0.27607438 -0.19742939 0.13499223 0.2334326 -0.21343142 0.28402787 0.08383861 0.056928296 -0.074439645 -0.2855389 0.09034546 -0.15853044 0.025447898 -0.3928393 0.34242612 -0.09502923 0.046390526 0.08990496 0.43447623 0.48325288 -0.10696785 0.34840986 0.38820642 -0.056010175 0.254572 0.5277634 0.2728822 0.051214736 -0.30211478 0.1335289 -0.08807656
미디어 -0.0048222016 0.21421325 0.10052703 0.03518024 0.067943916 -0.44044852 0.2166792 0.6105097 -0.23924965 -0.12342235 -0.2338036 -0.45002085 -0.13222201 0.08702326 0.044792548 -0.19525878 0.06923488 -0.19096938 -0.09473178 -0.5689613 0.11350817 0.19257374 -0.067623086 -0.1555052 -0.038035434 0.012180679 -0.29850912 -0.4250515 -0.030187614 0.020057045 0.42753598 0.23671934 0.19356124 -0.16459468 -0.2693613 0.47746402 0.062114608 -0.32321954 -0.17174669 -0.58768725 0.08054183 -0.24869925 -0.102310255 -0.14530511 0.2156353 -0.10749874 -0.27381065 0.116064206 0.2399053 0.08670419 0.14792362 -0.34678262 0.079333074 0.09703048 -0.12992689 0.22112487 0.26769823 0.08747011 -0.3010456 0.1962291 0.02471211 0.14421868 -0.1876173 -0.19304004 -0.34992427 0.1738692 0.16356301 0.22556166 -0.39690635 0.2631902 -0.18492779 0.12763724 0.23050734 -0.21078926 0.2880857 0.08989351 0.050200563 -0.05575943 -0.2979332 0.07229931 -0.17664523 0.032698672 -0.4060931 0.34597057 -0.10761837 0.05570292 0.0939128 0.4297859 0.48782152 -0.11899544 0.36747372 0.3899711 -0.061281882 0.23881587 0.5369427 0.2792182 0.06170415 -0.3002202 0.13450022 -0.08173118
직업인 0.007652398 0.17997177 0.08726295 0.038566597 0.053943686 -0.39121714 0.17612119 0.53185576 -0.2219127 -0.102608845 -0.21121304 -0.39336413 -0.113113925 0.07698616 0.05571201 -0.16989185 0.06566819 -0.16537675 -0.08258234 -0.4992095 0.090055056 0.15117808 -0.047416784 -0.119105496 -0.03414181 0.016274558 -0.25379574 -0.35807708 -0.025511403 0.022919672 0.36656466 0.2094259 0.17701939 -0.14125594 -0.2286058 0.4003646 0.07318502 -0.2895405 -0.16012022 -0.49481434 0.06836554 -0.23813339 -0.10528089 -0.13724586 0.19848461 -0.087868385 -0.23692907 0.091494724 0.20969571 0.0727851 0.112583145 -0.2914007 0.06154365 0.08821597 -0.1086468 0.17336889 0.23617417 0.061881743 -0.24172233 0.18572327 0.027475249 0.1105695 -0.16886468 -0.15697515 -0.3116089 0.16650085 0.15808506 0.1916676 -0.36307943 0.24990325 -0.17146003 0.107844435 0.21278936 -0.19235006 0.23933427 0.07990045 0.04431416 -0.05619707 -0.2432288 0.06882611 -0.15147531 0.016124234 -0.33564174 0.3061908 -0.083179854 0.048607003 0.062419754 0.3792122 0.4326369 -0.108831145 0.31360036 0.33550492 -0.035221934 0.2153134 0.4664901 0.23415048 0.043660816 -0.26567408 0.11026446 -0.08096768
사용 0.0153454095 0.26292264 0.12471727 0.055433314 0.078030474 -0.54074436 0.25726798 0.7601644 -0.3111241 -0.15503348 -0.28705925 -0.5318322 -0.15871987 0.092654064 0.068804756 -0.23200837 0.071120165 -0.23344372 -0.10617298 -0.6965253 0.12870595 0.22251987 -0.07836933 -0.18620272 -0.043954972 0.022870397 -0.35913962 -0.5085956 -0.020984987 0.01832076 0.5197563 0.2985857 0.25784534 -0.17622624 -0.3198713 0.58427984 0.08645006 -0.40276656 -0.22786912 -0.7131032 0.11253122 -0.30936295 -0.13805398 -0.18684176 0.26328704 -0.12110734 -0.33341965 0.14329499 0.28220767 0.09946471 0.16345116 -0.4100782 0.09150222 0.109791845 -0.14306629 0.25378048 0.32843316 0.10983366 -0.3478911 0.23600563 0.04281769 0.172612 -0.2391176 -0.22955574 -0.42406446 0.2294754 0.22377042 0.26566848 -0.49690744 0.3303336 -0.25182638 0.1515294 0.28773338 -0.26492065 0.35176358 0.10198569 0.061515827 -0.08732088 -0.3583192 0.1141013 -0.19744875 0.038980424 -0.48993856 0.4434902 -0.118745856 0.06996561 0.113052376 0.52722776 0.60107493 -0.14980449 0.44780642 0.48176566 -0.07433266 0.3100918 0.66904837 0.3360299 0.05765425 -0.38198704 0.16153964 -0.11218728
기술자 0.0068656653 0.136667 0.0692145 0.0137826 0.0365112 -0.29360113 0.1337185 0.40085593 -0.1483242 -0.07892936 -0.14676027 -0.2930856 -0.080072984 0.047166843 0.031785622 -0.12005016 0.04067269 -0.124563895 -0.045825593 -0.3576799 0.06442344 0.11596477 -0.041177258 -0.10181722 -0.027730374 0.011577946 -0.20401688 -0.27198026 -0.00732222 0.0072623454 0.2837577 0.15866187 0.13509253 -0.08785433 -0.16858923 0.29705283 0.053555783 -0.21507472 -0.10782258 -0.38192818 0.05771654 -0.17183445 -0.069304526 -0.088448666 0.15158223 -0.05945624 -0.16546646 0.08618393 0.15506487 0.051796943 0.088388205 -0.22584178 0.04658861 0.05126935 -0.07167511 0.1382159 0.19080946 0.04729375 -0.19552438 0.1352653 0.02136062 0.084117584 -0.12163728 -0.119166575 -0.22163016 0.11339062 0.11633862 0.14430806 -0.25619388 0.18987575 -0.13113251 0.072928675 0.14916083 -0.12686932 0.18199758 0.047589142 0.038246173 -0.053559005 -0.20009218 0.048008166 -0.116598204 0.026994634 -0.26468438 0.24773021 -0.053773247 0.027716763 0.06250313 0.2858187 0.32345006 -0.075177215 0.2429993 0.24289869 -0.025877867 0.17338002 0.3596962 0.17774399 0.029433718 -0.20955381 0.081101365 -0.06698457
